{"learner":{"attributes":{"scikit_learn":"{\"_estimator_type\": \"regressor\"}"},"feature_names":[],"feature_types":[],"gradient_booster":{"model":{"gbtree_model_param":{"num_parallel_tree":"1","num_trees":"200"},"iteration_indptr":[0,1,2,3,4,5,6,7,8,9,10,11,12,13,14,15,16,17,18,19,20,21,22,23,24,25,26,27,28,29,30,31,32,33,34,35,36,37,38,39,40,41,42,43,44,45,46,47,48,49,50,51,52,53,54,55,56,57,58,59,60,61,62,63,64,65,66,67,68,69,70,71,72,73,74,75,76,77,78,79,80,81,82,83,84,85,86,87,88,89,90,91,92,93,94,95,96,97,98,99,100,101,102,103,104,105,106,107,108,109,110,111,112,113,114,115,116,117,118,119,120,121,122,123,124,125,126,127,128,129,130,131,132,133,134,135,136,137,138,139,140,141,142,143,144,145,146,147,148,149,150,151,152,153,154,155,156,157,158,159,160,161,162,163,164,165,166,167,168,169,170,171,172,173,174,175,176,177,178,179,180,181,182,183,184,185,186,187,188,189,190,191,192,193,194,195,196,197,198,199,200],"tree_info":[0,0,0,0,0,0,0,0,0,0,0,0,0,0,0,0,0,0,0,0,0,0,0,0,0,0,0,0,0,0,0,0,0,0,0,0,0,0,0,0,0,0,0,0,0,0,0,0,0,0,0,0,0,0,0,0,0,0,0,0,0,0,0,0,0,0,0,0,0,0,0,0,0,0,0,0,0,0,0,0,0,0,0,0,0,0,0,0,0,0,0,0,0,0,0,0,0,0,0,0,0,0,0,0,0,0,0,0,0,0,0,0,0,0,0,0,0,0,0,0,0,0,0,0,0,0,0,0,0,0,0,0,0,0,0,0,0,0,0,0,0,0,0,0,0,0,0,0,0,0,0,0,0,0,0,0,0,0,0,0,0,0,0,0,0,0,0,0,0,0,0,0,0,0,0,0,0,0,0,0,0,0,0,0,0,0,0,0,0,0,0,0,0,0,0,0,0,0,0,0],"trees":[{"base_weights":[-9.069308E-6,-4.774497E1,3.8552322E1,-7.4393166E1,-1.2935491E1,3.1565605E1,1.2810416E2,-8.6717255E1,-2.0089535E1,-3.5156982E1,1.2692006E1,5.270742E0,4.7481304E1,1.0197353E2,2.5333992E2,-1.16555176E2,-7.7571686E1,-3.3316154E1,2.1452036E1,-4.716708E1,2.423841E1,7.28682E0,1.3677608E2,-2.6374935E1,3.045487E1,4.3403145E1,1.737794E2,1.2067519E2,4.731545E1,2.688385E2,1.2964592E0,-1.2407E2,-6.519885E1,-7.925562E1,5.0766697E1,-4.6136966E0,-2.6102179E1,6.929864E1,6.025453E0,-7.604703E0,-6.472529E1,1.3168198E2,3.9687214E0,-1.227608E0,7.801795E1,1.7536124E0,8.241599E0,-4.4259037E1,-4.557443E0,2.167868E1,8.2455086E1,4.941151E1,-2.8865445E0,2.8347852E2,2.4762533E1,5.9371243E1,1.335512E2,6.411722E1,-1.5913305E1,3.140519E2,6.6843348E0,-6.384291E0,-1.9616652E0,-2.0540726E0,-4.344641E0,-4.654611E0,-3.1293359E0,-5.935406E-1,3.469689E0,-3.0780752E0,-8.852181E-1,4.320939E0,1.1686122E0,-1.3428112E0,6.70394E-1,3.0703807E0,-1.1630797E0,-3.4030354E0,-3.093214E-1,-1.0935405E0,8.338335E0,7.787363E-1,-2.0682127E0,8.1796294E-1,-1.4538572E0,4.2974787E0,2.2111256E-1,-2.5276976E0,1.7619289E0,-1.4890465E0,5.003552E-1,-1.9223714E-1,1.9799875E0,3.272738E0,9.467189E0,1.7416099E0,3.3778882E0,1.9172016E0,-1.1140234E0,1.0089592E0,1.5279017E1,1.741073E0,4.8439026E-2,3.5687053E0,1.7861228E-1,6.8579087E0,1.9869455E0,2.1194561E-1,3.6184242E0,1.0786122E0,-2.404721E0,3.9739594E0,1.667193E1],"categories":[],"categories_nodes":[],"categories_segments":[],"categories_sizes":[],"default_left":[0,0,0,0,0,0,0,0,0,0,0,0,0,0,0,0,0,0,0,0,0,0,0,0,0,0,0,0,0,0,0,0,0,0,0,0,0,0,0,0,0,0,0,0,0,0,0,0,0,0,0,0,0,0,0,0,0,0,0,0,0,0,0,0,0,0,0,0,0,0,0,0,0,0,0,0,0,0,0,0,0,0,0,0,0,0,0,0,0,0,0,0,0,0,0,0,0,0,0,0,0,0,0,0,0,0,0,0,0,0,0,0,0],"id":0,"left_children":[1,3,5,7,9,11,13,15,17,19,21,23,25,27,29,31,33,35,37,39,41,43,45,47,49,51,53,55,57,59,-1,61,63,65,67,-1,69,71,73,75,77,79,81,83,85,-1,-1,87,89,91,93,95,97,99,101,103,105,107,109,111,-1,-1,-1,-1,-1,-1,-1,-1,-1,-1,-1,-1,-1,-1,-1,-1,-1,-1,-1,-1,-1,-1,-1,-1,-1,-1,-1,-1,-1,-1,-1,-1,-1,-1,-1,-1,-1,-1,-1,-1,-1,-1,-1,-1,-1,-1,-1,-1,-1,-1,-1,-1,-1],"loss_changes":[3.922488E6,8.8212225E5,7.336254E5,3.5897975E5,2.362114E5,4.5800862E5,2.5232762E5,1.1075475E5,5.620961E4,1.5950575E5,1.2844795E5,3.3074834E5,3.4373075E5,6.788844E4,4.2372875E4,3.0890125E4,7.7286375E4,3.034107E4,1.8035186E4,1.28017E5,8.22356E4,1.1211151E5,1.704611E4,7.159257E4,1.036325E5,1.8426188E5,3.362677E5,3.3906375E4,2.2267418E4,3.7454188E4,0E0,2.1678125E4,4.2783516E3,7.143825E4,6.6575293E3,0E0,1.9754762E4,2.697795E3,5.215017E3,6.40985E4,2.4571125E4,3.5971477E4,1.800668E4,8.226995E4,1.1294578E4,0E0,0E0,5.2324938E4,3.1156988E4,9.1176266E4,4.757228E4,1.5267888E5,6.2425266E4,6.3666375E4,2.3596611E3,7.112254E3,9.0998125E3,7.598383E3,7.069139E3,1.4426875E4,0E0,0E0,0E0,0E0,0E0,0E0,0E0,0E0,0E0,0E0,0E0,0E0,0E0,0E0,0E0,0E0,0E0,0E0,0E0,0E0,0E0,0E0,0E0,0E0,0E0,0E0,0E0,0E0,0E0,0E0,0E0,0E0,0E0,0E0,0E0,0E0,0E0,0E0,0E0,0E0,0E0,0E0,0E0,0E0,0E0,0E0,0E0,0E0,0E0,0E0,0E0,0E0,0E0],"parents":[2147483647,0,0,1,1,2,2,3,3,4,4,5,5,6,6,7,7,8,8,9,9,10,10,11,11,12,12,13,13,14,14,15,15,16,16,17,17,18,18,19,19,20,20,21,21,22,22,23,23,24,24,25,25,26,26,27,27,28,28,29,29,31,31,32,32,33,33,34,34,36,36,37,37,38,38,39,39,40,40,41,41,42,42,43,43,44,44,47,47,48,48,49,49,50,50,51,51,52,52,53,53,54,54,55,55,56,56,57,57,58,58,59,59],"right_children":[2,4,6,8,10,12,14,16,18,20,22,24,26,28,30,32,34,36,38,40,42,44,46,48,50,52,54,56,58,60,-1,62,64,66,68,-1,70,72,74,76,78,80,82,84,86,-1,-1,88,90,92,94,96,98,100,102,104,106,108,110,112,-1,-1,-1,-1,-1,-1,-1,-1,-1,-1,-1,-1,-1,-1,-1,-1,-1,-1,-1,-1,-1,-1,-1,-1,-1,-1,-1,-1,-1,-1,-1,-1,-1,-1,-1,-1,-1,-1,-1,-1,-1,-1,-1,-1,-1,-1,-1,-1,-1,-1,-1,-1,-1],"split_conditions":[-3.5746607E-1,1.45977605E-2,1.9762938E0,1.2841958E-1,4.828949E-1,-2.182933E-1,2.8717332E0,-1.102254E0,1.4046818E0,5.7790256E-1,2.5732908E-1,1.4752723E-1,2.4032638E0,1.0784109E0,-1.18605174E-1,2.5402266E-1,8.228927E0,-5.99552E-1,-4.262744E-2,-3.6475825E-1,-1.144162E0,4.4413724E0,7.5923586E-1,-1.938083E-1,2.1322827E0,7.9693936E-2,-1.144162E0,5.3197634E-1,1.2703216E0,2.2173278E0,1.2964592E0,1.186812E0,-2.4550332E-1,-3.27003E-1,1.7982617E-1,-4.6136966E0,-1.1247945E0,-1.0518619E0,2.0846082E-1,-6.843474E-1,1.3060374E0,7.8196913E-1,8.6001056E-1,-4.1269425E-1,-1.3196383E-1,1.7536124E0,8.241599E0,1.6573416E0,-1.9754627E-1,-3.5338303E-1,9.5971674E-1,4.8909448E-2,1.6342409E-2,-6.034476E-1,-1.17682755E-1,5.205729E-1,2.5333972E0,1.464796E-1,-6.786718E-2,1.7478595E0,6.6843348E0,-6.384291E0,-1.9616652E0,-2.0540726E0,-4.344641E0,-4.654611E0,-3.1293359E0,-5.935406E-1,3.469689E0,-3.0780752E0,-8.852181E-1,4.320939E0,1.1686122E0,-1.3428112E0,6.70394E-1,3.0703807E0,-1.1630797E0,-3.4030354E0,-3.093214E-1,-1.0935405E0,8.338335E0,7.787363E-1,-2.0682127E0,8.1796294E-1,-1.4538572E0,4.2974787E0,2.2111256E-1,-2.5276976E0,1.7619289E0,-1.4890465E0,5.003552E-1,-1.9223714E-1,1.9799875E0,3.272738E0,9.467189E0,1.7416099E0,3.3778882E0,1.9172016E0,-1.1140234E0,1.0089592E0,1.5279017E1,1.741073E0,4.8439026E-2,3.5687053E0,1.7861228E-1,6.8579087E0,1.9869455E0,2.1194561E-1,3.6184242E0,1.0786122E0,-2.404721E0,3.9739594E0,1.667193E1],"split_indices":[28,83,28,8,83,83,39,7,8,102,57,131,215,11,19,27,117,31,45,122,12,112,0,24,7,128,12,22,58,121,0,24,99,75,2,0,14,0,31,0,27,0,0,18,3,0,0,58,131,24,27,62,95,3,19,2,77,122,0,9,0,0,0,0,0,0,0,0,0,0,0,0,0,0,0,0,0,0,0,0,0,0,0,0,0,0,0,0,0,0,0,0,0,0,0,0,0,0,0,0,0,0,0,0,0,0,0,0,0,0,0,0,0],"split_type":[0,0,0,0,0,0,0,0,0,0,0,0,0,0,0,0,0,0,0,0,0,0,0,0,0,0,0,0,0,0,0,0,0,0,0,0,0,0,0,0,0,0,0,0,0,0,0,0,0,0,0,0,0,0,0,0,0,0,0,0,0,0,0,0,0,0,0,0,0,0,0,0,0,0,0,0,0,0,0,0,0,0,0,0,0,0,0,0,0,0,0,0,0,0,0,0,0,0,0,0,0,0,0,0,0,0,0,0,0,0,0,0,0],"sum_hessian":[2.129E3,9.51E2,1.178E3,5.38E2,4.13E2,1.094E3,8.4E1,4.38E2,1E2,2.21E2,1.92E2,4.13E2,6.81E2,7.1E1,1.3E1,1E2,3.38E2,7.6E1,2.4E1,1.84E2,3.7E1,1.85E2,7E0,1.83E2,2.3E2,6.61E2,2E1,5.2E1,1.9E1,1.2E1,1E0,8.6E1,1.4E1,3.34E2,4E0,7E0,6.9E1,5E0,1.9E1,5.7E1,1.27E2,5E0,3.2E1,1.66E2,1.9E1,2E0,5E0,1E2,8.3E1,1.98E2,3.2E1,5.85E2,7.6E1,1.1E1,9E0,1E1,4.2E1,1.5E1,4E0,8E0,4E0,8.2E1,4E0,8E0,6E0,1.8E2,1.54E2,1E0,3E0,1.2E1,5.7E1,3E0,2E0,3E0,1.6E1,1E1,4.7E1,1.2E2,7E0,1E0,4E0,2.6E1,6E0,1.02E2,6.4E1,1.7E1,2E0,9.3E1,7E0,3E1,5.3E1,8.2E1,1.16E2,2.9E1,3E0,3.26E2,2.59E2,2.4E1,5.2E1,1E0,1E1,6E0,3E0,8E0,2E0,4E1,2E0,2E0,1.3E1,2E0,2E0,1E0,7E0],"tree_param":{"num_deleted":"0","num_feature":"217","num_nodes":"113","size_leaf_vector":"1"}},{"base_weights":[3.5253663E-2,-4.5363377E1,3.669298E1,-7.071695E1,-1.2245167E1,3.0020905E1,1.2221333E2,-8.242616E1,-1.912228E1,-3.3380432E1,1.2129312E1,8.1573305E0,4.7455288E1,9.7084526E1,2.427177E2,-4.438584E1,-8.903816E1,-3.1761732E1,2.0572126E1,-4.4818474E1,2.3183199E1,7.636966E0,1.5086792E2,-2.6541069E1,2.63485E1,4.2784233E1,1.701428E2,1.1487902E2,4.5074883E1,2.574989E2,1.264048E0,-4.929429E1,3.837956E0,-9.5536705E1,-4.972773E1,-8.823693E1,-2.4853685E1,6.674863E1,5.69057E0,-1.3791989E1,-6.537855E1,1.2630533E2,3.7312002E0,-1.0727781E0,7.6951256E1,9.044379E0,3.0276194E0,-3.4188194E1,1.856801E1,-4.6905975E1,3.0104969E1,4.8734306E1,-1.6957842E1,2.528018E2,2.2657375E1,5.674335E1,1.2707933E2,6.1150745E1,-1.5382861E1,3.0064328E2,6.4169617E0,9.169968E-1,-2.761807E0,-5.660829E0,-4.13075E0,-3.1387541E0,-5.374896E-1,-1.3131981E0,-4.666911E0,-2.9360108E0,-8.4172004E-1,4.158903E0,1.1296586E0,-1.292456E0,6.3884676E-1,-1.1496606E0,5.9811893E0,-3.383173E0,-1.7027985E-1,-1.0662022E0,8.004801E0,1.4293823E0,-8.044345E-1,9.599511E-1,-1.0312475E0,4.2188206E0,2.1374257E-1,-2.7738883E0,-9.379023E-1,-1.8111576E0,1.7038479E0,-1.1966766E0,-3.1057076E0,3.1036003E0,9.797869E-1,1.7464428E0,3.3038552E0,1.1744875E0,-1.6558455E0,6.3817596E-1,1.4587229E1,1.6682214E0,4.662285E-2,3.410097E0,1.726583E-1,6.4643335E0,8.592858E-1,2.0488079E-1,3.4504254E0,1.0426586E0,-2.3245637E0,3.8746102E0,1.5942533E1],"categories":[],"categories_nodes":[],"categories_segments":[],"categories_sizes":[],"default_left":[0,0,0,0,0,0,0,0,0,0,0,0,0,0,0,0,0,0,0,0,0,0,0,0,0,0,0,0,0,0,0,0,0,0,0,0,0,0,0,0,0,0,0,0,0,0,0,0,0,0,0,0,0,0,0,0,0,0,0,0,0,0,0,0,0,0,0,0,0,0,0,0,0,0,0,0,0,0,0,0,0,0,0,0,0,0,0,0,0,0,0,0,0,0,0,0,0,0,0,0,0,0,0,0,0,0,0,0,0,0,0,0,0],"id":1,"left_children":[1,3,5,7,9,11,13,15,17,19,21,23,25,27,29,31,33,35,37,39,41,43,45,47,49,51,53,55,57,59,-1,61,-1,63,65,67,69,71,73,75,77,79,81,83,85,-1,-1,87,89,91,93,95,97,99,101,103,105,107,109,111,-1,-1,-1,-1,-1,-1,-1,-1,-1,-1,-1,-1,-1,-1,-1,-1,-1,-1,-1,-1,-1,-1,-1,-1,-1,-1,-1,-1,-1,-1,-1,-1,-1,-1,-1,-1,-1,-1,-1,-1,-1,-1,-1,-1,-1,-1,-1,-1,-1,-1,-1,-1,-1],"loss_changes":[3.546433E6,7.9849525E5,6.690665E5,3.2405125E5,2.1368158E5,4.170028E5,2.33827E5,1.064665E5,5.132668E4,1.4466795E5,1.1913733E5,3.080959E5,3.4172638E5,6.1456688E4,3.8485875E4,4.3624234E4,9.053575E4,2.7847258E4,1.6799617E4,1.1711106E5,7.575413E4,1.1357998E5,5.3142812E3,5.858721E4,8.946909E4,2.0984262E5,2.6247412E5,3.0380625E4,2.0378883E4,3.3858375E4,0E0,2.7134734E4,0E0,6.35235E4,2.7295922E4,7.769922E1,1.8022457E4,2.4734375E3,4.800307E3,9.4819664E4,1.5487531E4,3.3344883E4,1.6717453E4,6.698408E4,1.0971625E4,0E0,0E0,4.626353E4,2.2478207E4,4.103293E3,1.0124809E5,1.257845E5,3.6072055E4,1.27144875E5,2.0623774E3,6.481414E3,8.208625E3,6.8901875E3,6.605717E3,1.18584375E4,0E0,0E0,0E0,0E0,0E0,0E0,0E0,0E0,0E0,0E0,0E0,0E0,0E0,0E0,0E0,0E0,0E0,0E0,0E0,0E0,0E0,0E0,0E0,0E0,0E0,0E0,0E0,0E0,0E0,0E0,0E0,0E0,0E0,0E0,0E0,0E0,0E0,0E0,0E0,0E0,0E0,0E0,0E0,0E0,0E0,0E0,0E0,0E0,0E0,0E0,0E0,0E0,0E0],"parents":[2147483647,0,0,1,1,2,2,3,3,4,4,5,5,6,6,7,7,8,8,9,9,10,10,11,11,12,12,13,13,14,14,15,15,16,16,17,17,18,18,19,19,20,20,21,21,22,22,23,23,24,24,25,25,26,26,27,27,28,28,29,29,31,31,33,33,34,34,35,35,36,36,37,37,38,38,39,39,40,40,41,41,42,42,43,43,44,44,47,47,48,48,49,49,50,50,51,51,52,52,53,53,54,54,55,55,56,56,57,57,58,58,59,59],"right_children":[2,4,6,8,10,12,14,16,18,20,22,24,26,28,30,32,34,36,38,40,42,44,46,48,50,52,54,56,58,60,-1,62,-1,64,66,68,70,72,74,76,78,80,82,84,86,-1,-1,88,90,92,94,96,98,100,102,104,106,108,110,112,-1,-1,-1,-1,-1,-1,-1,-1,-1,-1,-1,-1,-1,-1,-1,-1,-1,-1,-1,-1,-1,-1,-1,-1,-1,-1,-1,-1,-1,-1,-1,-1,-1,-1,-1,-1,-1,-1,-1,-1,-1,-1,-1,-1,-1,-1,-1,-1,-1,-1,-1,-1,-1],"split_conditions":[-3.5746607E-1,1.45977605E-2,1.9762938E0,1.2841958E-1,4.828949E-1,-1.0662631E-1,2.8717332E0,-7.649614E-1,1.4046818E0,5.7790256E-1,8.171865E-1,-2.8855313E-2,1.4472052E0,1.0784109E0,-1.18605174E-1,8.228927E0,-2.754004E-1,-5.99552E-1,-4.262744E-2,-4.4211023E-2,-1.144162E0,4.4413724E0,-6.034476E-1,4.4400075E-1,-1.6769965E0,-4.0648807E-2,-1.144162E0,5.3197634E-1,1.2703216E0,2.2173278E0,1.264048E0,-2.072569E0,3.837956E0,-9.172794E-1,-3.7855542E-1,2.578469E-1,-1.1247945E0,-1.0518619E0,2.0846082E-1,4.5102233E-1,3.0015397E-1,7.8196913E-1,-7.5711995E-1,6.271435E-3,-1.3196383E-1,9.044379E0,3.0276194E0,-4.0528888E-1,-4.8484716E-1,9.9545056E-1,-1.1331824E0,4.8909448E-2,2.9194427E-1,-6.034476E-1,-1.18605174E-1,5.205729E-1,1.4675411E0,1.464796E-1,-6.786718E-2,1.7478595E0,6.4169617E0,9.169968E-1,-2.761807E0,-5.660829E0,-4.13075E0,-3.1387541E0,-5.374896E-1,-1.3131981E0,-4.666911E0,-2.9360108E0,-8.4172004E-1,4.158903E0,1.1296586E0,-1.292456E0,6.3884676E-1,-1.1496606E0,5.9811893E0,-3.383173E0,-1.7027985E-1,-1.0662022E0,8.004801E0,1.4293823E0,-8.044345E-1,9.599511E-1,-1.0312475E0,4.2188206E0,2.1374257E-1,-2.7738883E0,-9.379023E-1,-1.8111576E0,1.7038479E0,-1.1966766E0,-3.1057076E0,3.1036003E0,9.797869E-1,1.7464428E0,3.3038552E0,1.1744875E0,-1.6558455E0,6.3817596E-1,1.4587229E1,1.6682214E0,4.662285E-2,3.410097E0,1.726583E-1,6.4643335E0,8.592858E-1,2.0488079E-1,3.4504254E0,1.0426586E0,-2.3245637E0,3.8746102E0,1.5942533E1],"split_indices":[28,83,28,8,83,83,39,15,8,102,66,46,102,11,19,117,97,31,45,45,12,112,3,26,3,45,12,22,58,121,0,16,0,7,38,2,14,0,31,74,57,0,16,19,3,0,0,24,6,2,17,62,103,3,19,2,12,122,0,9,0,0,0,0,0,0,0,0,0,0,0,0,0,0,0,0,0,0,0,0,0,0,0,0,0,0,0,0,0,0,0,0,0,0,0,0,0,0,0,0,0,0,0,0,0,0,0,0,0,0,0,0,0],"split_type":[0,0,0,0,0,0,0,0,0,0,0,0,0,0,0,0,0,0,0,0,0,0,0,0,0,0,0,0,0,0,0,0,0,0,0,0,0,0,0,0,0,0,0,0,0,0,0,0,0,0,0,0,0,0,0,0,0,0,0,0,0,0,0,0,0,0,0,0,0,0,0,0,0,0,0,0,0,0,0,0,0,0,0,0,0,0,0,0,0,0,0,0,0,0,0,0,0,0,0,0,0,0,0,0,0,0,0,0,0,0,0,0,0],"sum_hessian":[2.129E3,9.51E2,1.178E3,5.38E2,4.13E2,1.094E3,8.4E1,4.38E2,1E2,2.21E2,1.92E2,4.86E2,6.08E2,7.1E1,1.3E1,6.6E1,3.72E2,7.6E1,2.4E1,1.84E2,3.7E1,1.87E2,5E0,1.67E2,3.19E2,5.87E2,2.1E1,5.2E1,1.9E1,1.2E1,1E0,6.4E1,2E0,3.18E2,5.4E1,7E0,6.9E1,5E0,1.9E1,7.4E1,1.1E2,5E0,3.2E1,1.67E2,2E1,3E0,2E0,1.43E2,2.4E1,1.5E1,3.04E2,5.34E2,5.3E1,1.3E1,8E0,1E1,4.2E1,1.5E1,4E0,8E0,4E0,5E0,5.9E1,1.31E2,1.87E2,4E1,1.4E1,1E0,6E0,1.2E1,5.7E1,3E0,2E0,3E0,1.6E1,7E1,4E0,1.06E2,4E0,1E0,4E0,1.4E1,1.8E1,8.2E1,8.5E1,1.8E1,2E0,5.9E1,8.4E1,5E0,1.9E1,7E0,8E0,7.4E1,2.3E2,2.99E2,2.35E2,1.5E1,3.8E1,2E0,1.1E1,5E0,3E0,8E0,2E0,4.1E1,1E0,2E0,1.3E1,2E0,2E0,1E0,7E0],"tree_param":{"num_deleted":"0","num_feature":"217","num_nodes":"113","size_leaf_vector":"1"}},{"base_weights":[6.490997E-2,-4.932798E1,3.0532555E1,-6.8044304E1,-5.403268E0,1.7521116E1,7.17349E1,-7.433849E1,-8.945159E0,-2.972135E1,2.9321554E1,-7.161507E0,3.5831257E1,6.2191647E1,1.6767296E2,-7.684537E1,2.086081E1,-2.985878E1,1.8182085E1,-4.400137E1,1.1270322E1,7.817865E0,7.339528E1,-2.9097898E1,1.1849377E1,3.0666866E1,1.4389848E2,4.922772E1,1.0610998E2,1.5622757E1,1.3052364E2,-4.0307583E1,-8.247731E1,3.8370617E1,-1.6253182E0,1.1997441E1,-3.8054283E1,8.878047E0,4.172617E0,-5.569703E1,9.659607E0,3.4127308E1,-1.8972271E1,1.2079933E0,1.14926285E2,6.156228E1,8.560227E0,-5.3750157E0,-2.481831E1,9.499098E0,9.32604E0,4.5214954E1,7.894531E0,2.272525E2,2.7714424E1,6.4002625E1,2.2171066E1,9.286024E1,1.0131392E1,2.4811397E0,1.4422267E2,-2.8201685E0,-3.8889197E-1,-4.7214646E0,-2.9127007E0,3.151066E0,7.640728E-1,1.6011765E0,-3.0107424E-1,1.6855417E-1,-2.3811185E0,-2.3319982E-1,1.3474551E0,-9.6135485E-1,-3.3420467E0,-4.9289855E-1,1.046369E0,3.361771E0,7.0972484E-1,-4.5301276E-1,-2.4460628E0,-1.8216528E-1,3.8656976E0,6.713066E-1,7.2142143E0,-6.183893E-1,3.8127644E0,-2.8654647E0,-9.061577E-1,1.7220153E0,-1.8499656E-1,1.43915E0,3.008394E0,-1.112634E0,1.2895902E0,1.2996872E1,4.933477E-1,1.6712322E0,-2.7889505E-2,3.5186276E0,4.123408E-1,-2.7581985E0,1.292636E0,1.5440048E0,4.8403215E0,3.559716E0,8.521762E0],"categories":[],"categories_nodes":[],"categories_segments":[],"categories_sizes":[],"default_left":[0,0,0,0,0,0,0,0,0,0,0,0,0,0,0,0,0,0,0,0,0,0,0,0,0,0,0,0,0,0,0,0,0,0,0,0,0,0,0,0,0,0,0,0,0,0,0,0,0,0,0,0,0,0,0,0,0,0,0,0,0,0,0,0,0,0,0,0,0,0,0,0,0,0,0,0,0,0,0,0,0,0,0,0,0,0,0,0,0,0,0,0,0,0,0,0,0,0,0,0,0,0,0,0,0,0,0],"id":2,"left_children":[1,3,5,7,9,11,13,15,17,19,21,23,25,27,29,31,33,35,37,39,41,43,45,47,49,51,53,55,57,-1,59,61,63,65,-1,67,69,71,-1,73,75,77,79,81,83,85,-1,-1,87,89,-1,91,93,95,97,99,101,103,-1,-1,105,-1,-1,-1,-1,-1,-1,-1,-1,-1,-1,-1,-1,-1,-1,-1,-1,-1,-1,-1,-1,-1,-1,-1,-1,-1,-1,-1,-1,-1,-1,-1,-1,-1,-1,-1,-1,-1,-1,-1,-1,-1,-1,-1,-1,-1,-1],"loss_changes":[3.2069115E6,6.680071E5,7.0532525E5,2.1136425E5,2.069151E5,4.5355475E5,2.7888938E5,1.245095E5,3.2313314E4,8.4788016E4,9.5148734E4,1.7883372E5,3.170535E5,1.5931988E5,1.0981694E5,9.997625E4,1.4329573E4,1.1433604E4,1.4441029E4,6.7691266E4,2.6915146E4,4.87113E4,2.7653688E4,6.4102516E4,9.2649336E4,1.82186E5,2.4549638E5,8.8526875E4,6.4308312E4,0E0,1.9441562E4,3.568914E4,1.201495E5,5.297747E3,0E0,2.357921E3,1.0862301E4,5.754228E3,0E0,3.4479594E4,4.6046934E3,1.3564258E4,4.603293E3,2.4649719E4,9.982191E3,3.4617E4,0E0,0E0,4.0292477E4,7.518495E4,0E0,8.0825375E4,1.1711735E5,1.0401369E5,1.9559316E3,5.0917938E4,2.4488531E4,1.1441156E4,0E0,0E0,2.6151188E4,0E0,0E0,0E0,0E0,0E0,0E0,0E0,0E0,0E0,0E0,0E0,0E0,0E0,0E0,0E0,0E0,0E0,0E0,0E0,0E0,0E0,0E0,0E0,0E0,0E0,0E0,0E0,0E0,0E0,0E0,0E0,0E0,0E0,0E0,0E0,0E0,0E0,0E0,0E0,0E0,0E0,0E0,0E0,0E0,0E0,0E0],"parents":[2147483647,0,0,1,1,2,2,3,3,4,4,5,5,6,6,7,7,8,8,9,9,10,10,11,11,12,12,13,13,14,14,15,15,16,16,17,17,18,18,19,19,20,20,21,21,22,22,23,23,24,24,25,25,26,26,27,27,28,28,30,30,31,31,32,32,33,33,35,35,36,36,37,37,39,39,40,40,41,41,42,42,43,43,44,44,45,45,48,48,49,49,51,51,52,52,53,53,54,54,55,55,56,56,57,57,60,60],"right_children":[2,4,6,8,10,12,14,16,18,20,22,24,26,28,30,32,34,36,38,40,42,44,46,48,50,52,54,56,58,-1,60,62,64,66,-1,68,70,72,-1,74,76,78,80,82,84,86,-1,-1,88,90,-1,92,94,96,98,100,102,104,-1,-1,106,-1,-1,-1,-1,-1,-1,-1,-1,-1,-1,-1,-1,-1,-1,-1,-1,-1,-1,-1,-1,-1,-1,-1,-1,-1,-1,-1,-1,-1,-1,-1,-1,-1,-1,-1,-1,-1,-1,-1,-1,-1,-1,-1,-1,-1,-1],"split_conditions":[-5.4293066E-1,7.0101774E-1,9.646918E-1,3.865181E-1,-7.831387E-1,-1.0662631E-1,2.9888475E0,3.2881732E0,9.9848473E-1,2.6780307E0,1.9416386E0,-1.4686162E-2,2.1045918E0,7.0101774E-1,-2.1941843E0,-7.649614E-1,-5.2147937E-1,-4.0395525E-1,1.6043665E0,3.0015397E-1,1.4476096E-2,3.4124538E-1,4.3667838E-1,-4.596735E-1,4.6472936E0,1.6342409E-2,-1.144162E0,-2.0414102E-1,3.1025956E0,1.5622757E1,-6.662647E-1,2.4978818E-1,-3.546075E-1,-9.002648E-1,-1.6253182E0,-2.2600955E-1,-1.645094E0,-1.8284738E-2,4.172617E0,-9.9475914E-1,4.791773E-1,-8.319804E-1,1.6385365E0,9.847353E-1,-5.052932E-1,-9.577672E-1,8.560227E0,-5.3750157E0,-5.084274E-1,-6.337854E-1,9.32604E0,3.1992146E-1,2.4131504E-1,8.416307E-2,-1.1661613E-1,4.8285434E-1,-3.6144845E0,-9.294025E-1,1.0131392E1,2.4811397E0,1.1326768E0,-2.8201685E0,-3.8889197E-1,-4.7214646E0,-2.9127007E0,3.151066E0,7.640728E-1,1.6011765E0,-3.0107424E-1,1.6855417E-1,-2.3811185E0,-2.3319982E-1,1.3474551E0,-9.6135485E-1,-3.3420467E0,-4.9289855E-1,1.046369E0,3.361771E0,7.0972484E-1,-4.5301276E-1,-2.4460628E0,-1.8216528E-1,3.8656976E0,6.713066E-1,7.2142143E0,-6.183893E-1,3.8127644E0,-2.8654647E0,-9.061577E-1,1.7220153E0,-1.8499656E-1,1.43915E0,3.008394E0,-1.112634E0,1.2895902E0,1.2996872E1,4.933477E-1,1.6712322E0,-2.7889505E-2,3.5186276E0,4.123408E-1,-2.7581985E0,1.292636E0,1.5440048E0,4.8403215E0,3.559716E0,8.521762E0],"split_indices":[28,107,28,6,24,83,28,147,6,119,107,46,215,107,15,15,4,36,59,57,19,44,3,40,77,95,12,103,168,0,3,5,83,17,0,4,17,75,0,21,35,58,15,97,2,28,0,0,24,105,0,83,129,20,19,95,104,2,0,0,38,0,0,0,0,0,0,0,0,0,0,0,0,0,0,0,0,0,0,0,0,0,0,0,0,0,0,0,0,0,0,0,0,0,0,0,0,0,0,0,0,0,0,0,0,0,0],"split_type":[0,0,0,0,0,0,0,0,0,0,0,0,0,0,0,0,0,0,0,0,0,0,0,0,0,0,0,0,0,0,0,0,0,0,0,0,0,0,0,0,0,0,0,0,0,0,0,0,0,0,0,0,0,0,0,0,0,0,0,0,0,0,0,0,0,0,0,0,0,0,0,0,0,0,0,0,0,0,0,0,0,0,0,0,0,0,0,0,0,0,0,0,0,0,0,0,0,0,0,0,0,0,0,0,0,0,0],"sum_hessian":[2.129E3,8.12E2,1.317E3,5.69E2,2.43E2,1.002E3,3.15E2,5.14E2,5.5E1,1.43E2,1E2,4.27E2,5.75E2,2.88E2,2.7E1,5.01E2,1.3E1,3.1E1,2.4E1,1.06E2,3.7E1,6.8E1,3.2E1,1.98E2,2.29E2,5.5E2,2.5E1,2.24E2,6.4E1,4E0,2.3E1,6.8E1,4.33E2,1E1,3E0,5E0,2.6E1,2.2E1,2E0,8.7E1,1.9E1,2.1E1,1.6E1,6.5E1,3E0,3E1,2E0,9E0,1.89E2,2.27E2,2E0,3.35E2,2.15E2,1.4E1,1.1E1,1.44E2,8E1,5.8E1,6E0,4E0,1.9E1,4.5E1,2.3E1,2.88E2,1.45E2,4E0,6E0,2E0,3E0,5E0,2.1E1,1.3E1,9E0,2.1E1,6.6E1,7E0,1.2E1,7E0,1.4E1,1.3E1,3E0,6.2E1,3E0,1E0,2E0,5E0,2.5E1,3.1E1,1.58E2,7.8E1,1.49E2,1.61E2,1.74E2,8E1,1.35E2,1.2E1,2E0,9E0,2E0,1.29E2,1.5E1,3E0,7.7E1,4E0,5.4E1,6E0,1.3E1],"tree_param":{"num_deleted":"0","num_feature":"217","num_nodes":"107","size_leaf_vector":"1"}},{"base_weights":[1.02607936E-1,-4.096648E1,3.3264328E1,-5.7702988E1,2.3490635E-1,2.5133936E1,9.2462105E1,-6.595461E1,-1.4098598E1,-2.6465506E1,3.1768976E1,5.359859E0,4.1937634E1,7.874039E1,2.0338992E2,-7.991567E1,-4.1524483E1,1.2501631E2,-2.0588844E1,-6.610656E-1,-4.7856247E1,2.421644E1,1.1771199E2,-2.391928E1,2.1450777E1,3.719798E1,1.6204312E2,6.2756405E1,1.1784511E2,2.3701122E2,-1.0098938E1,-4.449454E1,-8.8893616E1,-2.1283468E1,-5.954791E1,6.2994844E-1,7.498545E0,-3.2617474E1,1.9207462E1,2.324523E1,-1.857426E1,-5.4810574E1,2.3322609E1,6.891467E0,6.681663E1,1.6054298E2,1.3329742E1,-3.098086E1,1.8277126E1,1.7928679E1,1.0026708E2,4.176222E1,-2.6103079E1,2.3007385E2,2.2733967E1,7.360065E1,1.3483134E1,1.3810791E2,8.388487E1,1.713991E2,1.7089436E1,-1.9278389E0,1.1704186E0,4.6994087E-1,-2.7454565E0,-4.7164474E0,-2.353208E0,-1.4919469E-2,-2.2005544E0,-3.2778223E0,-1.365992E0,-1.9386599E0,1.2821256E-1,3.1241717E0,2.632149E-1,1.467007E0,-2.0694513E0,-1.5147785E0,4.050212E-1,-6.287161E-1,-3.3486683E0,1.7809778E-1,2.7534857E0,1.2921903E-1,2.7257762E0,3.7259278E0,-1.880474E0,8.629371E0,2.2069092E0,-1.3771057E-3,8.8956755E-1,-2.2913768E0,-5.621249E-1,-1.0651988E0,1.907835E0,1.1764504E0,-1.6349272E0,6.003735E0,1.2840633E0,1.7897633E0,3.8574827E0,1.6969341E0,-1.619954E0,3.9206594E-1,1.3322959E1,1.5290776E0,-2.6959738E-2,3.2545533E0,5.491619E0,1.4558566E0,-1.6494343E0,1.2999214E0,7.1206727E0,4.3375936E0,1.0219994E0,9.02819E0,2.2229187E0],"categories":[],"categories_nodes":[],"categories_segments":[],"categories_sizes":[],"default_left":[0,0,0,0,0,0,0,0,0,0,0,0,0,0,0,0,0,0,0,0,0,0,0,0,0,0,0,0,0,0,0,0,0,0,0,0,0,0,0,0,0,0,0,0,0,0,0,0,0,0,0,0,0,0,0,0,0,0,0,0,0,0,0,0,0,0,0,0,0,0,0,0,0,0,0,0,0,0,0,0,0,0,0,0,0,0,0,0,0,0,0,0,0,0,0,0,0,0,0,0,0,0,0,0,0,0,0,0,0,0,0,0,0,0,0,0,0],"id":3,"left_children":[1,3,5,7,9,11,13,15,17,19,21,23,25,27,29,31,33,35,37,39,41,43,45,47,49,51,53,55,57,59,61,63,65,67,69,-1,-1,71,73,75,77,79,81,83,85,87,89,91,93,95,97,99,101,103,105,107,109,111,113,115,-1,-1,-1,-1,-1,-1,-1,-1,-1,-1,-1,-1,-1,-1,-1,-1,-1,-1,-1,-1,-1,-1,-1,-1,-1,-1,-1,-1,-1,-1,-1,-1,-1,-1,-1,-1,-1,-1,-1,-1,-1,-1,-1,-1,-1,-1,-1,-1,-1,-1,-1,-1,-1,-1,-1,-1,-1],"loss_changes":[2.9022555E6,6.5648175E5,5.651301E5,2.426595E5,2.332252E5,3.4467944E5,2.0012612E5,1.9075075E5,1.0098896E5,8.276478E4,7.9583555E4,2.2571234E5,3.1332638E5,7.261075E4,1.1006006E5,1.1084575E5,7.497844E4,1.2137164E4,5.0889473E4,2.998019E4,4.186842E4,8.6629086E4,4.256797E4,5.122171E4,8.398033E4,1.573965E5,1.9379281E5,4.8700438E4,1.3187531E4,3.07885E4,3.7631882E3,4.261186E4,6.0812E4,4.7680953E4,1.9509781E4,0E0,0E0,1.76415E4,1.4756169E4,1.3032563E4,1.2751895E4,3.7686156E4,4.822592E3,1.7294389E4,3.0148219E4,2.1965156E3,2.3886987E2,4.2269953E4,2.0484275E4,8.49775E4,1.6122109E4,1.0387175E5,1.5086426E4,1.11114625E5,1.4775947E3,1.6282969E4,1.4038262E4,6.4340312E3,1.137125E3,3.6061875E3,0E0,0E0,0E0,0E0,0E0,0E0,0E0,0E0,0E0,0E0,0E0,0E0,0E0,0E0,0E0,0E0,0E0,0E0,0E0,0E0,0E0,0E0,0E0,0E0,0E0,0E0,0E0,0E0,0E0,0E0,0E0,0E0,0E0,0E0,0E0,0E0,0E0,0E0,0E0,0E0,0E0,0E0,0E0,0E0,0E0,0E0,0E0,0E0,0E0,0E0,0E0,0E0,0E0,0E0,0E0,0E0,0E0],"parents":[2147483647,0,0,1,1,2,2,3,3,4,4,5,5,6,6,7,7,8,8,9,9,10,10,11,11,12,12,13,13,14,14,15,15,16,16,17,17,18,18,19,19,20,20,21,21,22,22,23,23,24,24,25,25,26,26,27,27,28,28,29,29,30,30,31,31,32,32,33,33,34,34,37,37,38,38,39,39,40,40,41,41,42,42,43,43,44,44,45,45,46,46,47,47,48,48,49,49,50,50,51,51,52,52,53,53,54,54,55,55,56,56,57,57,58,58,59,59],"right_children":[2,4,6,8,10,12,14,16,18,20,22,24,26,28,30,32,34,36,38,40,42,44,46,48,50,52,54,56,58,60,62,64,66,68,70,-1,-1,72,74,76,78,80,82,84,86,88,90,92,94,96,98,100,102,104,106,108,110,112,114,116,-1,-1,-1,-1,-1,-1,-1,-1,-1,-1,-1,-1,-1,-1,-1,-1,-1,-1,-1,-1,-1,-1,-1,-1,-1,-1,-1,-1,-1,-1,-1,-1,-1,-1,-1,-1,-1,-1,-1,-1,-1,-1,-1,-1,-1,-1,-1,-1,-1,-1,-1,-1,-1,-1,-1,-1,-1],"split_conditions":[-3.5746607E-1,7.0101774E-1,1.6116933E0,1.8589133E-1,-7.831387E-1,1.45977605E-2,2.8717332E0,-2.182933E-1,-1.144162E0,2.5939604E-2,6.5771747E-1,-2.8855313E-2,1.4472052E0,6.2436235E-1,-1.18605174E-1,-6.6761976E-1,8.082372E-1,-6.146474E-1,1.4046818E0,-9.195577E-1,1.6562147E0,1.9416386E0,1.3617023E-3,4.4400075E-1,3.1025956E0,6.4622515E-1,-1.144162E0,1.4463602E-1,-3.600645E-1,1.881121E0,-6.786718E-2,-1.1530389E0,5.712534E-1,2.5492156E-2,-5.4293066E-1,6.2994844E-1,7.498545E0,1.5397489E0,-4.262744E-2,1.3507707E0,5.126736E-1,-9.9475914E-1,3.5040292E-1,9.847353E-1,1.6809634E0,9.0851367E-1,4.384635E-1,-2.747854E-1,-4.1909823E-1,1.0955055E0,6.5653704E-2,1.4116105E0,2.8501195E-1,-6.034476E-1,-1.18605174E-1,7.0101774E-1,1.5345465E0,-1.9217831E0,5.1457524E-1,2.60043E0,1.7089436E1,-1.9278389E0,1.1704186E0,4.6994087E-1,-2.7454565E0,-4.7164474E0,-2.353208E0,-1.4919469E-2,-2.2005544E0,-3.2778223E0,-1.365992E0,-1.9386599E0,1.2821256E-1,3.1241717E0,2.632149E-1,1.467007E0,-2.0694513E0,-1.5147785E0,4.050212E-1,-6.287161E-1,-3.3486683E0,1.7809778E-1,2.7534857E0,1.2921903E-1,2.7257762E0,3.7259278E0,-1.880474E0,8.629371E0,2.2069092E0,-1.3771057E-3,8.8956755E-1,-2.2913768E0,-5.621249E-1,-1.0651988E0,1.907835E0,1.1764504E0,-1.6349272E0,6.003735E0,1.2840633E0,1.7897633E0,3.8574827E0,1.6969341E0,-1.619954E0,3.9206594E-1,1.3322959E1,1.5290776E0,-2.6959738E-2,3.2545533E0,5.491619E0,1.4558566E0,-1.6494343E0,1.2999214E0,7.1206727E0,4.3375936E0,1.0219994E0,9.02819E0,2.2229187E0],"split_indices":[28,107,28,8,24,83,39,83,12,15,122,46,102,62,19,15,15,0,8,17,47,107,67,26,168,128,12,66,17,90,0,27,94,95,28,0,0,78,45,103,57,21,0,97,99,0,0,24,31,20,43,129,11,3,19,107,116,3,18,4,0,0,0,0,0,0,0,0,0,0,0,0,0,0,0,0,0,0,0,0,0,0,0,0,0,0,0,0,0,0,0,0,0,0,0,0,0,0,0,0,0,0,0,0,0,0,0,0,0,0,0,0,0,0,0,0,0],"split_type":[0,0,0,0,0,0,0,0,0,0,0,0,0,0,0,0,0,0,0,0,0,0,0,0,0,0,0,0,0,0,0,0,0,0,0,0,0,0,0,0,0,0,0,0,0,0,0,0,0,0,0,0,0,0,0,0,0,0,0,0,0,0,0,0,0,0,0,0,0,0,0,0,0,0,0,0,0,0,0,0,0,0,0,0,0,0,0,0,0,0,0,0,0,0,0,0,0,0,0,0,0,0,0,0,0,0,0,0,0,0,0,0,0,0,0,0,0],"sum_hessian":[2.129E3,9.51E2,1.178E3,6.76E2,2.75E2,1.037E3,1.41E2,5.68E2,1.08E2,1.49E2,1.26E2,4.77E2,5.6E2,1.27E2,1.4E1,3.6E2,2.08E2,4E0,1.04E2,6.8E1,8.1E1,1.17E2,9E0,1.69E2,3.08E2,5.4E2,2E1,9.2E1,3.5E1,1.2E1,2E0,7.4E1,2.86E2,9.9E1,1.09E2,1E0,3E0,8E1,2.4E1,2.9E1,3.9E1,7.4E1,7E0,8.4E1,3.3E1,6E0,3E0,1.45E2,2.4E1,2.96E2,1.2E1,5.04E2,3.6E1,1.3E1,7E0,7.5E1,1.7E1,2E1,1.5E1,9E0,3E0,1E0,1E0,1.2E1,6.2E1,2.52E2,3.4E1,5.2E1,4.7E1,9.1E1,1.8E1,6.8E1,1.2E1,5E0,1.9E1,2.7E1,2E0,2.7E1,1.2E1,1.7E1,5.7E1,5E0,2E0,7.8E1,6E0,3.1E1,2E0,5E0,1E0,1E0,2E0,8.2E1,6.3E1,8E0,1.6E1,2.67E2,2.9E1,9E0,3E0,4.33E2,7.1E1,3E0,3.3E1,2E0,1.1E1,5E0,2E0,6.3E1,1.2E1,1.3E1,4E0,1E0,1.9E1,1.4E1,1E0,8E0,1E0],"tree_param":{"num_deleted":"0","num_feature":"217","num_nodes":"117","size_leaf_vector":"1"}},{"base_weights":[1.3637392E-1,-4.456514E1,2.7710117E1,-6.1497547E1,-4.8272862E0,8.119173E0,5.0714462E1,-6.724578E1,-7.5361643E0,-2.6862106E1,2.6636488E1,-5.8326073E0,4.0035835E1,4.3551197E1,1.2619327E2,-6.956483E1,2.0711792E1,-2.6710056E1,1.7307863E1,-3.9867496E1,1.046524E1,7.0970016E0,6.6684616E1,-1.1818209E1,4.9134083E1,2.5272736E1,7.271035E1,6.718187E1,3.4143764E1,9.2654625E1,2.1968192E2,-9.45441E1,-6.239616E1,3.7188766E1,-1.4888916E0,1.3229813E1,-3.459632E1,8.562309E0,3.9293911E0,-5.0496548E1,8.893689E0,3.1750856E1,-1.7696457E1,9.581204E-1,1.0661429E2,5.5211323E1,8.150688E0,-1.3359603E1,1.0421463E2,1.8030229E2,3.0130825E1,1.9344154E1,5.742552E1,5.450001E1,2.0019907E2,5.4155308E1,9.940564E1,3.646982E1,-5.9986706E1,1.1199756E2,3.1478025E1,2.3418489E2,1.1411583E0,-5.2537355E0,-2.914028E0,-3.8300893E0,-2.4953225E0,3.3246396E0,8.9440787E-1,1.1405383E0,-8.668739E-1,2.0786107E-1,-2.1796453E0,2.7179236E-2,1.8660501E0,-8.719411E-1,-3.0298822E0,-4.5305845E-1,9.629351E-1,3.142486E0,6.524037E-1,-4.376391E-1,-2.2287602E0,-1.795599E-1,3.6185176E0,6.322853E-1,6.6860957E0,-7.0115036E-1,3.4532483E0,-5.0505967E0,-5.7598126E-1,5.668969E0,1.4597725E0,8.106125E-1,1.0493893E1,2.042637E0,-1.6189139E0,1.2951602E0,-1.11324266E-1,3.6738033E0,1.8294758E0,3.7239704E0,1.2754259E0,6.3305664E-1,1.1259074E1,3.7695692E0,1.0561957E0,3.7537675E0,6.1239047E0,3.845864E0,1.5147718E0,-3.2926598E0,-1.7970733E-1,3.6346931E0,6.7080736E0,2.108815E0,-1.8876175E0,8.301845E0,1.6448582E1],"categories":[],"categories_nodes":[],"categories_segments":[],"categories_sizes":[],"default_left":[0,0,0,0,0,0,0,0,0,0,0,0,0,0,0,0,0,0,0,0,0,0,0,0,0,0,0,0,0,0,0,0,0,0,0,0,0,0,0,0,0,0,0,0,0,0,0,0,0,0,0,0,0,0,0,0,0,0,0,0,0,0,0,0,0,0,0,0,0,0,0,0,0,0,0,0,0,0,0,0,0,0,0,0,0,0,0,0,0,0,0,0,0,0,0,0,0,0,0,0,0,0,0,0,0,0,0,0,0,0,0,0,0,0,0,0,0,0,0],"id":4,"left_children":[1,3,5,7,9,11,13,15,17,19,21,23,25,27,29,31,33,35,37,39,41,43,45,47,49,51,53,55,57,59,61,63,65,67,-1,69,71,73,-1,75,77,79,81,83,85,87,-1,89,91,93,95,97,99,101,103,105,107,109,111,113,115,117,-1,-1,-1,-1,-1,-1,-1,-1,-1,-1,-1,-1,-1,-1,-1,-1,-1,-1,-1,-1,-1,-1,-1,-1,-1,-1,-1,-1,-1,-1,-1,-1,-1,-1,-1,-1,-1,-1,-1,-1,-1,-1,-1,-1,-1,-1,-1,-1,-1,-1,-1,-1,-1,-1,-1,-1,-1],"loss_changes":[2.6266475E6,5.4673625E5,5.935804E5,1.7629725E5,1.6988036E5,3.177283E5,3.2215312E5,1.0648925E5,2.7138268E4,7.0323E4,7.856125E4,1.6409802E5,1.0283825E5,1.2108475E5,1.426905E5,8.3993E4,1.2754228E4,1.0536947E4,1.2725287E4,5.5905594E4,2.3340562E4,4.205166E4,2.7471812E4,8.169695E4,1.1670588E5,2.767282E4,1.4463719E5,6.0519812E4,8.954978E4,4.3807906E4,3.1770625E4,3.5882688E4,6.590475E4,5.032006E3,0E0,2.152664E3,9.594766E3,5.283698E3,0E0,2.832814E4,3.8965532E3,1.1975912E4,3.6965542E3,2.1701777E4,8.498055E3,3.070207E4,0E0,7.0443984E4,8.1502734E2,2.571575E4,3.0812316E4,1.8308957E4,5.003414E3,3.2854094E4,3.4630156E4,7.837353E4,1.550475E4,9.506769E4,3.0715781E3,1.6381E4,9.7393545E3,2.2892938E4,0E0,0E0,0E0,0E0,0E0,0E0,0E0,0E0,0E0,0E0,0E0,0E0,0E0,0E0,0E0,0E0,0E0,0E0,0E0,0E0,0E0,0E0,0E0,0E0,0E0,0E0,0E0,0E0,0E0,0E0,0E0,0E0,0E0,0E0,0E0,0E0,0E0,0E0,0E0,0E0,0E0,0E0,0E0,0E0,0E0,0E0,0E0,0E0,0E0,0E0,0E0,0E0,0E0,0E0,0E0,0E0,0E0],"parents":[2147483647,0,0,1,1,2,2,3,3,4,4,5,5,6,6,7,7,8,8,9,9,10,10,11,11,12,12,13,13,14,14,15,15,16,16,17,17,18,18,19,19,20,20,21,21,22,22,23,23,24,24,25,25,26,26,27,27,28,28,29,29,30,30,31,31,32,32,33,33,35,35,36,36,37,37,39,39,40,40,41,41,42,42,43,43,44,44,45,45,47,47,48,48,49,49,50,50,51,51,52,52,53,53,54,54,55,55,56,56,57,57,58,58,59,59,60,60,61,61],"right_children":[2,4,6,8,10,12,14,16,18,20,22,24,26,28,30,32,34,36,38,40,42,44,46,48,50,52,54,56,58,60,62,64,66,68,-1,70,72,74,-1,76,78,80,82,84,86,88,-1,90,92,94,96,98,100,102,104,106,108,110,112,114,116,118,-1,-1,-1,-1,-1,-1,-1,-1,-1,-1,-1,-1,-1,-1,-1,-1,-1,-1,-1,-1,-1,-1,-1,-1,-1,-1,-1,-1,-1,-1,-1,-1,-1,-1,-1,-1,-1,-1,-1,-1,-1,-1,-1,-1,-1,-1,-1,-1,-1,-1,-1,-1,-1,-1,-1,-1,-1],"split_conditions":[-5.4293066E-1,7.0101774E-1,3.64317E-1,3.865181E-1,-7.831387E-1,7.0101774E-1,2.433475E0,3.2881732E0,9.9848473E-1,2.6780307E0,1.9416386E0,1.4332176E0,7.841946E-1,-1.230608E0,2.8717332E0,-1.102254E0,-5.2147937E-1,-4.0395525E-1,1.6043665E0,3.0015397E-1,1.4476096E-2,3.4124538E-1,4.3667838E-1,4.4817114E0,-1.144162E0,5.291546E-1,3.4288713E-1,7.0101774E-1,1.0307716E0,1.0784109E0,-1.18605174E-1,-3.546075E-1,-3.27003E-1,-7.5711995E-1,-1.4888916E0,3.104519E-1,-1.645094E0,-2.3037035E-2,3.9293911E0,-9.9475914E-1,4.791773E-1,-8.319804E-1,1.6385365E0,9.847353E-1,-5.052932E-1,-9.577672E-1,8.150688E0,-1.3848746E0,-2.2596975E-1,1.116815E0,1.04425E0,7.6500404E-1,3.9788893E-1,-4.2610326E-1,-4.938724E-1,4.6445173E-1,-2.754004E-1,-1.4640866E-1,1.2595718E0,1.483567E0,1.8810457E1,1.881121E0,1.1411583E0,-5.2537355E0,-2.914028E0,-3.8300893E0,-2.4953225E0,3.3246396E0,8.9440787E-1,1.1405383E0,-8.668739E-1,2.0786107E-1,-2.1796453E0,2.7179236E-2,1.8660501E0,-8.719411E-1,-3.0298822E0,-4.5305845E-1,9.629351E-1,3.142486E0,6.524037E-1,-4.376391E-1,-2.2287602E0,-1.795599E-1,3.6185176E0,6.322853E-1,6.6860957E0,-7.0115036E-1,3.4532483E0,-5.0505967E0,-5.7598126E-1,5.668969E0,1.4597725E0,8.106125E-1,1.0493893E1,2.042637E0,-1.6189139E0,1.2951602E0,-1.11324266E-1,3.6738033E0,1.8294758E0,3.7239704E0,1.2754259E0,6.3305664E-1,1.1259074E1,3.7695692E0,1.0561957E0,3.7537675E0,6.1239047E0,3.845864E0,1.5147718E0,-3.2926598E0,-1.7970733E-1,3.6346931E0,6.7080736E0,2.108815E0,-1.8876175E0,8.301845E0,1.6448582E1],"split_indices":[28,107,28,6,24,107,28,147,6,119,107,6,83,105,39,7,4,36,59,57,19,44,3,5,12,120,57,107,2,11,19,83,75,16,0,4,17,45,0,21,35,58,15,97,2,28,0,102,2,0,0,25,68,41,2,17,97,101,4,26,199,90,0,0,0,0,0,0,0,0,0,0,0,0,0,0,0,0,0,0,0,0,0,0,0,0,0,0,0,0,0,0,0,0,0,0,0,0,0,0,0,0,0,0,0,0,0,0,0,0,0,0,0,0,0,0,0,0,0],"split_type":[0,0,0,0,0,0,0,0,0,0,0,0,0,0,0,0,0,0,0,0,0,0,0,0,0,0,0,0,0,0,0,0,0,0,0,0,0,0,0,0,0,0,0,0,0,0,0,0,0,0,0,0,0,0,0,0,0,0,0,0,0,0,0,0,0,0,0,0,0,0,0,0,0,0,0,0,0,0,0,0,0,0,0,0,0,0,0,0,0,0,0,0,0,0,0,0,0,0,0,0,0,0,0,0,0,0,0,0,0,0,0,0,0,0,0,0,0,0,0],"sum_hessian":[2.129E3,8.12E2,1.317E3,5.69E2,2.43E2,7.12E2,6.05E2,5.14E2,5.5E1,1.43E2,1E2,4.96E2,2.16E2,5.54E2,5.1E1,5.01E2,1.3E1,3.1E1,2.4E1,1.06E2,3.7E1,6.8E1,3.2E1,4.48E2,4.8E1,1.5E2,6.6E1,1.56E2,3.98E2,3.9E1,1.2E1,1.09E2,3.92E2,1E1,3E0,5E0,2.6E1,2.2E1,2E0,8.7E1,1.9E1,2.1E1,1.6E1,6.5E1,3E0,3E1,2E0,4.43E2,5E0,5E0,4.3E1,1.28E2,2.2E1,5.9E1,7E0,1.13E2,4.3E1,3.89E2,9E0,2.9E1,1E1,1.1E1,1E0,8.3E1,2.6E1,1.81E2,2.11E2,3E0,7E0,4E0,1E0,5E0,2.1E1,1.8E1,4E0,2.1E1,6.6E1,7E0,1.2E1,7E0,1.4E1,1.3E1,3E0,6.2E1,3E0,1E0,2E0,5E0,2.5E1,8E0,4.35E2,4E0,1E0,1E0,4E0,3.7E1,6E0,9.8E1,3E1,1.1E1,1.1E1,3.4E1,2.5E1,1E0,6E0,6.8E1,4.5E1,2.3E1,2E1,5E1,3.39E2,8E0,1E0,1.2E1,1.7E1,9E0,1E0,8E0,3E0],"tree_param":{"num_deleted":"0","num_feature":"217","num_nodes":"119","size_leaf_vector":"1"}},{"base_weights":[1.7726518E-1,-3.699337E1,3.0191063E1,-5.790744E1,-9.675307E0,2.455977E1,1.0238016E2,-6.754608E1,-1.543942E1,-2.7153412E1,1.0479173E1,3.3443532E0,3.740233E1,8.0860916E1,2.0573769E2,-4.9469147E1,-7.878626E1,-2.5960823E1,1.758408E1,-3.7020584E1,2.1598701E1,1.088467E2,5.637081E0,-2.0620934E1,2.5195885E1,3.4095055E1,1.3987909E2,9.601625E1,3.6656227E1,2.181402E2,1.1126298E0,-5.2222675E1,5.2392532E1,-9.244248E1,-6.255387E1,-7.533711E1,-1.9946949E1,5.8220657E1,4.513902E0,-3.3288226E0,-5.199794E1,1.1979357E2,3.0905836E0,6.714218E0,7.939695E0,-2.4514196E0,6.567695E1,-4.1897564E1,1.5174398E0,2.2940557E1,8.921458E0,2.6878027E1,6.1555363E1,2.2844533E2,1.9611713E1,4.6513813E1,1.06446724E2,1.540229E0,5.993854E1,1.5692818E2,1.5831759E1,1.0814532E0,-2.7317781E0,-3.3149147E-1,3.440279E0,-4.8244524E0,-2.5604742E0,-4.3450737E0,-2.5727706E0,-1.018113E0,-4.0140886E0,-4.8807365E-1,-2.0863054E0,3.666055E0,9.339925E-1,-1.246135E0,5.587319E-1,-4.3591377E-1,7.5967493E0,-2.7442138E0,-9.211769E-2,-8.493328E-1,7.5273476E0,6.5285075E-1,-1.7896439E0,-2.9717562E-1,6.457316E-1,5.290802E-1,-1.1232256E0,1.3114718E0,3.9415212E0,-2.3037176E0,2.958925E-1,-2.1379745E-1,2.9641364E0,1.9412988E0,3.4213626E-1,5.6265527E-1,2.0282724E0,3.355018E0,4.0228707E-1,6.1723024E-1,1.2348431E1,1.4266504E0,-4.517403E-2,3.3912034E0,8.725629E-1,5.563992E0,2.3729548E0,1.0253533E0,-2.1614568E0,1.4679921E0,3.3434618E0,8.2827215E0,1.9597992E0],"categories":[],"categories_nodes":[],"categories_segments":[],"categories_sizes":[],"default_left":[0,0,0,0,0,0,0,0,0,0,0,0,0,0,0,0,0,0,0,0,0,0,0,0,0,0,0,0,0,0,0,0,0,0,0,0,0,0,0,0,0,0,0,0,0,0,0,0,0,0,0,0,0,0,0,0,0,0,0,0,0,0,0,0,0,0,0,0,0,0,0,0,0,0,0,0,0,0,0,0,0,0,0,0,0,0,0,0,0,0,0,0,0,0,0,0,0,0,0,0,0,0,0,0,0,0,0,0,0,0,0,0,0,0,0],"id":5,"left_children":[1,3,5,7,9,11,13,15,17,19,21,23,25,27,29,31,33,35,37,39,41,43,45,47,49,51,53,55,57,59,-1,61,63,65,67,69,71,73,75,77,79,81,83,85,-1,87,89,91,93,95,-1,97,99,101,103,105,107,109,111,113,-1,-1,-1,-1,-1,-1,-1,-1,-1,-1,-1,-1,-1,-1,-1,-1,-1,-1,-1,-1,-1,-1,-1,-1,-1,-1,-1,-1,-1,-1,-1,-1,-1,-1,-1,-1,-1,-1,-1,-1,-1,-1,-1,-1,-1,-1,-1,-1,-1,-1,-1,-1,-1,-1,-1],"loss_changes":[2.3774128E6,5.4334775E5,4.7677012E5,2.1958812E5,1.4612106E5,2.982188E5,1.7241881E5,8.5302125E4,3.5549305E4,1.075917E5,9.13132E4,2.1732234E5,2.2637331E5,4.4715812E4,2.7005312E4,5.069803E4,5.3847625E4,2.1361848E4,1.3015379E4,9.3180375E4,6.8691055E4,4.4844906E4,9.000301E4,9.332752E4,7.090008E4,1.29541875E5,2.19204E5,2.2414469E4,1.62593125E4,2.8689E4,0E0,3.0940406E4,5.2998545E3,1.9085375E4,2.9576281E4,5.399336E2,1.5120871E4,2.212875E3,4.19989E3,4.9858246E4,1.8428938E4,2.7796008E4,1.3255815E4,3.906909E2,0E0,4.301401E4,9.347508E3,2.044386E4,3.304985E4,5.4714312E4,0E0,1.1203641E5,4.0109438E4,4.4986E4,1.8559998E3,5.6290215E3,6.9778125E3,8.528703E3,5.7991016E2,3.780625E3,0E0,0E0,0E0,0E0,0E0,0E0,0E0,0E0,0E0,0E0,0E0,0E0,0E0,0E0,0E0,0E0,0E0,0E0,0E0,0E0,0E0,0E0,0E0,0E0,0E0,0E0,0E0,0E0,0E0,0E0,0E0,0E0,0E0,0E0,0E0,0E0,0E0,0E0,0E0,0E0,0E0,0E0,0E0,0E0,0E0,0E0,0E0,0E0,0E0,0E0,0E0,0E0,0E0,0E0,0E0],"parents":[2147483647,0,0,1,1,2,2,3,3,4,4,5,5,6,6,7,7,8,8,9,9,10,10,11,11,12,12,13,13,14,14,15,15,16,16,17,17,18,18,19,19,20,20,21,21,22,22,23,23,24,24,25,25,26,26,27,27,28,28,29,29,31,31,32,32,33,33,34,34,35,35,36,36,37,37,38,38,39,39,40,40,41,41,42,42,43,43,45,45,46,46,47,47,48,48,49,49,51,51,52,52,53,53,54,54,55,55,56,56,57,57,58,58,59,59],"right_children":[2,4,6,8,10,12,14,16,18,20,22,24,26,28,30,32,34,36,38,40,42,44,46,48,50,52,54,56,58,60,-1,62,64,66,68,70,72,74,76,78,80,82,84,86,-1,88,90,92,94,96,-1,98,100,102,104,106,108,110,112,114,-1,-1,-1,-1,-1,-1,-1,-1,-1,-1,-1,-1,-1,-1,-1,-1,-1,-1,-1,-1,-1,-1,-1,-1,-1,-1,-1,-1,-1,-1,-1,-1,-1,-1,-1,-1,-1,-1,-1,-1,-1,-1,-1,-1,-1,-1,-1,-1,-1,-1,-1,-1,-1,-1,-1],"split_conditions":[-3.5746607E-1,1.45977605E-2,1.9762938E0,1.2841958E-1,4.828949E-1,-2.182933E-1,2.8717332E0,-7.3955774E-2,1.4046818E0,5.7790256E-1,-1.2432674E0,1.4404322E-1,2.4032638E0,1.0784109E0,-1.18605174E-1,8.228927E0,-3.2386371E-1,-5.99552E-1,-4.262744E-2,-3.6475825E-1,-1.144162E0,2.595263E-1,4.4413724E0,-2.747854E-1,4.6472936E0,1.4116105E0,-1.144162E0,5.3197634E-1,-4.0544093E-1,1.881121E0,1.1126298E0,-2.072569E0,1.7982617E-1,1.968561E-1,-1.1329932E0,2.578469E-1,-4.1259763E-1,-1.0518619E0,2.0846082E-1,1.5400556E0,1.3060374E0,7.8196913E-1,8.6001056E-1,7.480084E-1,7.939695E0,-4.1269425E-1,-5.324465E-1,1.1628685E0,5.4611206E-1,-6.9950424E-2,8.921458E0,-4.034156E-1,4.5484164E-1,-6.034476E-1,-1.17682755E-1,8.1694067E-1,8.727733E-1,1.4116795E0,1.3164047E0,2.60043E0,1.5831759E1,1.0814532E0,-2.7317781E0,-3.3149147E-1,3.440279E0,-4.8244524E0,-2.5604742E0,-4.3450737E0,-2.5727706E0,-1.018113E0,-4.0140886E0,-4.8807365E-1,-2.0863054E0,3.666055E0,9.339925E-1,-1.246135E0,5.587319E-1,-4.3591377E-1,7.5967493E0,-2.7442138E0,-9.211769E-2,-8.493328E-1,7.5273476E0,6.5285075E-1,-1.7896439E0,-2.9717562E-1,6.457316E-1,5.290802E-1,-1.1232256E0,1.3114718E0,3.9415212E0,-2.3037176E0,2.958925E-1,-2.1379745E-1,2.9641364E0,1.9412988E0,3.4213626E-1,5.6265527E-1,2.0282724E0,3.355018E0,4.0228707E-1,6.1723024E-1,1.2348431E1,1.4266504E0,-4.517403E-2,3.3912034E0,8.725629E-1,5.563992E0,2.3729548E0,1.0253533E0,-2.1614568E0,1.4679921E0,3.3434618E0,8.2827215E0,1.9597992E0],"split_indices":[28,83,28,8,83,83,39,15,8,102,12,38,215,11,19,117,75,31,45,122,12,4,112,24,77,129,12,22,90,90,0,16,2,36,7,2,16,0,31,2,27,0,0,0,0,18,12,79,26,66,0,98,90,3,19,9,2,44,61,4,0,0,0,0,0,0,0,0,0,0,0,0,0,0,0,0,0,0,0,0,0,0,0,0,0,0,0,0,0,0,0,0,0,0,0,0,0,0,0,0,0,0,0,0,0,0,0,0,0,0,0,0,0,0,0],"split_type":[0,0,0,0,0,0,0,0,0,0,0,0,0,0,0,0,0,0,0,0,0,0,0,0,0,0,0,0,0,0,0,0,0,0,0,0,0,0,0,0,0,0,0,0,0,0,0,0,0,0,0,0,0,0,0,0,0,0,0,0,0,0,0,0,0,0,0,0,0,0,0,0,0,0,0,0,0,0,0,0,0,0,0,0,0,0,0,0,0,0,0,0,0,0,0,0,0,0,0,0,0,0,0,0,0,0,0,0,0,0,0,0,0,0,0],"sum_hessian":[2.129E3,9.51E2,1.178E3,5.38E2,4.13E2,1.094E3,8.4E1,4.38E2,1E2,2.21E2,1.92E2,4.13E2,6.81E2,7.1E1,1.3E1,1.7E2,2.68E2,7.6E1,2.4E1,1.84E2,3.7E1,8E0,1.84E2,1.97E2,2.16E2,6.61E2,2E1,5.2E1,1.9E1,1.2E1,1E0,1.66E2,4E0,1.43E2,1.25E2,7E0,6.9E1,5E0,1.9E1,5.7E1,1.27E2,5E0,3.2E1,3E0,5E0,1.63E2,2.1E1,1E2,9.7E1,2.14E2,2E0,5.25E2,1.36E2,1.1E1,9E0,1E1,4.2E1,8E0,1.1E1,9E0,3E0,5E0,1.61E2,1E0,3E0,1.29E2,1.4E1,3.7E1,8.8E1,1E0,6E0,4.8E1,2.1E1,3E0,2E0,3E0,1.6E1,5.6E1,1E0,1.2E2,7E0,1E0,4E0,2.6E1,6E0,1E0,2E0,9.9E1,6.4E1,6E0,1.5E1,9.2E1,8E0,8.9E1,8E0,1.07E2,1.07E2,2.46E2,2.79E2,1.23E2,1.3E1,1E0,1E1,6E0,3E0,5E0,5E0,3.8E1,4E0,6E0,2E0,3E0,8E0,8E0,1E0],"tree_param":{"num_deleted":"0","num_feature":"217","num_nodes":"115","size_leaf_vector":"1"}},{"base_weights":[2.0689316E-1,-4.0272884E1,2.5176432E1,-5.5685513E1,-4.1029177E0,1.4294506E1,5.963654E1,-6.180655E1,-1.3165486E1,-2.4432886E1,2.4923006E1,2.3585703E0,4.096949E1,5.1437973E1,1.4212756E2,-6.3866093E1,2.6927206E1,8.764129E0,-3.359445E1,-3.6341408E1,9.741981E0,6.834871E0,6.198841E1,-1.4925065E0,5.7932823E1,2.712545E1,7.064104E1,4.0191925E1,8.957526E1,1.3498195E1,1.0957301E2,-7.27693E1,-4.468885E1,4.368828E1,-5.275949E0,-2.563703E-1,4.0496106E0,-6.159401E1,-1.9905964E1,-4.6075912E1,8.307467E0,2.9949743E1,-1.69823E1,1.1466446E0,9.898189E1,5.0968983E1,7.759651E0,-2.4579912E1,7.4699674E0,1.8012846E2,3.4514816E1,2.1636503E1,6.261897E1,5.791582E1,2.0656018E2,5.3065468E1,1.6650496E1,7.808506E1,8.681237E0,6.5136475E1,1.318925E2,-1.8848009E0,-3.9585571E0,-1.2970619E0,-2.9000478E0,3.559988E0,1.132558E0,2.357378E-1,-1.1309693E0,-9.034652E-1,6.9099826E-1,-3.4208214E0,-1.5422535E0,5.288479E-1,-1.4559518E0,-2.9319134E0,-1.1129671E0,-2.7687786E-2,1.4537975E0,2.998213E0,5.9726757E-1,-4.1249043E-1,-2.1650224E0,-1.5439297E-1,3.377671E0,6.0033494E-1,6.1985693E0,-6.64921E-1,3.191979E0,-1.6117293E0,2.6377752E-1,-2.1796606E-1,1.2431644E0,7.76281E-1,1.02487335E1,1.0833695E0,7.075647E0,1.7212203E0,4.9011096E-1,3.2742622E0,8.452479E-1,3.7851074E0,9.6134454E-1,1.1392894E1,1.4369072E0,3.5822468E0,1.8093828E0,-2.4709365E0,9.912596E-1,2.103606E0,4.2288013E0,8.7645113E-1,3.4239259E0,1.2793294E0,7.313953E0],"categories":[],"categories_nodes":[],"categories_segments":[],"categories_sizes":[],"default_left":[0,0,0,0,0,0,0,0,0,0,0,0,0,0,0,0,0,0,0,0,0,0,0,0,0,0,0,0,0,0,0,0,0,0,0,0,0,0,0,0,0,0,0,0,0,0,0,0,0,0,0,0,0,0,0,0,0,0,0,0,0,0,0,0,0,0,0,0,0,0,0,0,0,0,0,0,0,0,0,0,0,0,0,0,0,0,0,0,0,0,0,0,0,0,0,0,0,0,0,0,0,0,0,0,0,0,0,0,0,0,0,0,0,0,0],"id":6,"left_children":[1,3,5,7,9,11,13,15,17,19,21,23,25,27,29,31,33,35,37,39,41,43,45,47,49,51,53,55,57,-1,59,61,63,65,67,69,-1,71,73,75,77,79,81,83,85,87,-1,89,91,93,95,97,99,101,103,105,107,109,-1,111,113,-1,-1,-1,-1,-1,-1,-1,-1,-1,-1,-1,-1,-1,-1,-1,-1,-1,-1,-1,-1,-1,-1,-1,-1,-1,-1,-1,-1,-1,-1,-1,-1,-1,-1,-1,-1,-1,-1,-1,-1,-1,-1,-1,-1,-1,-1,-1,-1,-1,-1,-1,-1,-1,-1],"loss_changes":[2.1539355E6,4.5299812E5,4.933873E5,1.4753825E5,1.4459239E5,3.1924944E5,2.064025E5,9.2729875E4,3.2998375E4,5.895803E4,6.729117E4,1.4861684E5,1.2542378E5,1.20350125E5,8.694556E4,7.989775E4,6.7076094E3,2.3475965E4,1.333823E4,4.688867E4,2.1030057E4,3.6053066E4,2.5983008E4,1.346818E5,1.2255395E5,4.014225E4,1.5753769E5,6.730528E4,4.921597E4,0E0,1.5212219E4,7.133625E4,3.7677906E4,3.0173408E3,9.730106E2,8.524165E3,0E0,4.0707422E2,7.890706E3,2.5023672E4,3.6967837E3,1.1172354E4,3.54977E3,1.876778E4,7.205379E3,2.6490906E4,0E0,4.176321E4,9.660542E4,2.5445938E4,5.0545152E4,2.7811E4,2.5617812E3,6.1164688E4,2.3749375E4,4.287653E4,1.796947E4,1.0233469E4,0E0,3.9069922E2,1.919786E4,0E0,0E0,0E0,0E0,0E0,0E0,0E0,0E0,0E0,0E0,0E0,0E0,0E0,0E0,0E0,0E0,0E0,0E0,0E0,0E0,0E0,0E0,0E0,0E0,0E0,0E0,0E0,0E0,0E0,0E0,0E0,0E0,0E0,0E0,0E0,0E0,0E0,0E0,0E0,0E0,0E0,0E0,0E0,0E0,0E0,0E0,0E0,0E0,0E0,0E0,0E0,0E0,0E0,0E0],"parents":[2147483647,0,0,1,1,2,2,3,3,4,4,5,5,6,6,7,7,8,8,9,9,10,10,11,11,12,12,13,13,14,14,15,15,16,16,17,17,18,18,19,19,20,20,21,21,22,22,23,23,24,24,25,25,26,26,27,27,28,28,30,30,31,31,32,32,33,33,34,34,35,35,37,37,38,38,39,39,40,40,41,41,42,42,43,43,44,44,45,45,47,47,48,48,49,49,50,50,51,51,52,52,53,53,54,54,55,55,56,56,57,57,59,59,60,60],"right_children":[2,4,6,8,10,12,14,16,18,20,22,24,26,28,30,32,34,36,38,40,42,44,46,48,50,52,54,56,58,-1,60,62,64,66,68,70,-1,72,74,76,78,80,82,84,86,88,-1,90,92,94,96,98,100,102,104,106,108,110,-1,112,114,-1,-1,-1,-1,-1,-1,-1,-1,-1,-1,-1,-1,-1,-1,-1,-1,-1,-1,-1,-1,-1,-1,-1,-1,-1,-1,-1,-1,-1,-1,-1,-1,-1,-1,-1,-1,-1,-1,-1,-1,-1,-1,-1,-1,-1,-1,-1,-1,-1,-1,-1,-1,-1,-1],"split_conditions":[-5.4293066E-1,7.0101774E-1,9.646918E-1,1.574527E-1,-7.831387E-1,7.0101774E-1,2.9888475E0,2.471872E0,-1.0022653E0,2.6780307E0,1.9416386E0,-2.2886664E-2,-4.5392886E-2,7.0101774E-1,-2.1941843E0,-3.546075E-1,-5.363398E-1,1.2064304E0,2.7443975E-1,3.0015397E-1,1.4476096E-2,3.4124538E-1,4.3667838E-1,-3.863307E-1,-1.144162E0,9.682942E-1,9.748378E-1,-2.0414102E-1,3.1025956E0,1.3498195E1,1.0204833E0,-7.649614E-1,8.082372E-1,-1.1572787E0,-6.4266294E-1,2.868338E-3,4.0496106E0,8.921287E-1,-3.1930462E-1,2.435125E-1,8.5568285E-1,-8.319804E-1,1.6385365E0,9.847353E-1,-5.052932E-1,-9.577672E-1,7.759651E0,-1.4435165E-1,2.5371328E-1,1.116815E0,1.4150791E0,-3.6475825E-1,-4.382937E-1,4.1248867E-1,9.762797E-1,-1.4599757E-1,-3.6144845E0,-1.9687656E-1,8.681237E0,-1.396483E0,-6.662647E-1,-1.8848009E0,-3.9585571E0,-1.2970619E0,-2.9000478E0,3.559988E0,1.132558E0,2.357378E-1,-1.1309693E0,-9.034652E-1,6.9099826E-1,-3.4208214E0,-1.5422535E0,5.288479E-1,-1.4559518E0,-2.9319134E0,-1.1129671E0,-2.7687786E-2,1.4537975E0,2.998213E0,5.9726757E-1,-4.1249043E-1,-2.1650224E0,-1.5439297E-1,3.377671E0,6.0033494E-1,6.1985693E0,-6.64921E-1,3.191979E0,-1.6117293E0,2.6377752E-1,-2.1796606E-1,1.2431644E0,7.76281E-1,1.02487335E1,1.0833695E0,7.075647E0,1.7212203E0,4.9011096E-1,3.2742622E0,8.452479E-1,3.7851074E0,9.6134454E-1,1.1392894E1,1.4369072E0,3.5822468E0,1.8093828E0,-2.4709365E0,9.912596E-1,2.103606E0,4.2288013E0,8.7645113E-1,3.4239259E0,1.2793294E0,7.313953E0],"split_indices":[28,107,28,8,24,107,28,59,17,119,107,42,97,107,15,83,4,59,96,57,19,44,3,24,12,83,105,103,168,0,40,15,15,21,0,23,0,57,36,20,35,58,15,97,2,28,0,83,28,0,93,122,102,20,0,17,104,20,0,0,3,0,0,0,0,0,0,0,0,0,0,0,0,0,0,0,0,0,0,0,0,0,0,0,0,0,0,0,0,0,0,0,0,0,0,0,0,0,0,0,0,0,0,0,0,0,0,0,0,0,0,0,0,0,0],"split_type":[0,0,0,0,0,0,0,0,0,0,0,0,0,0,0,0,0,0,0,0,0,0,0,0,0,0,0,0,0,0,0,0,0,0,0,0,0,0,0,0,0,0,0,0,0,0,0,0,0,0,0,0,0,0,0,0,0,0,0,0,0,0,0,0,0,0,0,0,0,0,0,0,0,0,0,0,0,0,0,0,0,0,0,0,0,0,0,0,0,0,0,0,0,0,0,0,0,0,0,0,0,0,0,0,0,0,0,0,0,0,0,0,0,0,0],"sum_hessian":[2.129E3,8.12E2,1.317E3,5.69E2,2.43E2,1.002E3,3.15E2,4.97E2,7.2E1,1.43E2,1E2,6.93E2,3.09E2,2.88E2,2.7E1,4.86E2,1.1E1,3.5E1,3.7E1,1.06E2,3.7E1,6.8E1,3.2E1,6.49E2,4.4E1,2.12E2,9.7E1,2.24E2,6.4E1,4E0,2.3E1,3.3E2,1.56E2,7E0,4E0,3.2E1,3E0,1.1E1,2.6E1,8.7E1,1.9E1,2.1E1,1.6E1,6.5E1,3E0,3E1,2E0,1.81E2,4.68E2,6E0,3.8E1,1.85E2,2.7E1,9E1,7E0,1.44E2,8E1,5.8E1,6E0,9E0,1.4E1,5.2E1,2.78E2,6.6E1,9E1,2E0,5E0,3E0,1E0,1.4E1,1.8E1,8E0,3E0,6E0,2E1,5.6E1,3.1E1,1.4E1,5E0,7E0,1.4E1,1.3E1,3E0,6.2E1,3E0,1E0,2E0,5E0,2.5E1,1.44E2,3.7E1,2.79E2,1.89E2,1E0,5E0,3.5E1,3E0,8.8E1,9.7E1,2.5E1,2E0,6.1E1,2.9E1,6E0,1E0,6.7E1,7.7E1,3E0,7.7E1,1E1,4.8E1,1E0,8E0,2E0,1.2E1],"tree_param":{"num_deleted":"0","num_feature":"217","num_nodes":"115","size_leaf_vector":"1"}},{"base_weights":[2.4279024E-1,-2.798908E1,3.271917E1,-4.668721E1,-4.634936E0,1.9524809E1,5.9088703E1,-5.793476E1,-8.433834E0,3.4808384E1,-1.2419887E1,-4.101599E0,3.52069E1,5.1789726E1,1.3596375E2,-7.7767784E1,-4.7687428E1,-1.9733755E1,2.071069E1,1.2162997E1,1.3816629E2,-2.2240936E1,1.7722748E1,-2.5749033E1,1.4830677E1,2.2012245E1,5.0279602E1,4.9721874E1,1.2100061E1,1.2966243E1,1.0459836E2,-8.0677826E1,1.279462E1,-4.2812138E1,-8.447854E1,-4.0217262E1,-3.7008355E0,-3.299989E-1,4.0765156E1,5.81205E0,6.849123E1,8.842131E0,2.5445166E1,-3.1978243E1,1.3784862E1,4.2679954E0,6.060724E1,-3.097545E1,1.752822E1,1.0078111E1,8.394326E1,5.08391E1,1.337051E1,-3.889728E1,5.3486073E1,2.1132084E1,6.240321E1,2.7217345E0,1.2205195E2,-4.4471602E0,-2.5900497E0,-7.1640414E-1,2.2346675E0,-1.3389915E0,-2.796763E0,-5.077566E0,-3.3317463E0,-3.1412E0,-1.4181782E0,-6.77227E-1,8.3319014E-1,-1.7511561E0,7.9410625E-1,2.7426538E0,-1.7984162E-1,9.289417E-2,4.2797074E0,3.6630929E0,9.966858E-1,3.0482795E0,6.618309E-2,-6.3616794E-1,-2.347E0,2.1150899E-1,2.1381056E0,-1.6739495E0,9.9069256E-1,7.5009966E0,2.315481E0,-2.435774E0,-8.835749E-1,4.417548E0,-4.9094898E-1,7.540905E-1,-1.6944004E0,3.3603516E-1,4.6377997E0,4.1451616E0,1.388419E0,1.3257188E0,-1.6644058E-1,-2.2755997E0,1.9774629E-2,2.5373461E0,5.677071E0,8.7579197E-1,3.5625522E0,2.7873352E0,8.82737E0,1.8499435E0,6.881742E0],"categories":[],"categories_nodes":[],"categories_segments":[],"categories_sizes":[],"default_left":[0,0,0,0,0,0,0,0,0,0,0,0,0,0,0,0,0,0,0,0,0,0,0,0,0,0,0,0,0,0,0,0,0,0,0,0,0,0,0,0,0,0,0,0,0,0,0,0,0,0,0,0,0,0,0,0,0,0,0,0,0,0,0,0,0,0,0,0,0,0,0,0,0,0,0,0,0,0,0,0,0,0,0,0,0,0,0,0,0,0,0,0,0,0,0,0,0,0,0,0,0,0,0,0,0,0,0,0,0,0,0],"id":7,"left_children":[1,3,5,7,9,11,13,15,17,19,21,23,25,27,29,31,33,35,37,39,41,43,45,47,49,51,53,55,-1,-1,57,59,61,63,65,67,69,71,73,75,77,-1,79,81,83,85,87,89,91,93,95,97,99,101,103,105,107,-1,109,-1,-1,-1,-1,-1,-1,-1,-1,-1,-1,-1,-1,-1,-1,-1,-1,-1,-1,-1,-1,-1,-1,-1,-1,-1,-1,-1,-1,-1,-1,-1,-1,-1,-1,-1,-1,-1,-1,-1,-1,-1,-1,-1,-1,-1,-1,-1,-1,-1,-1,-1,-1],"loss_changes":[1.9538465E6,4.9759744E5,3.4364412E5,2.7186388E5,1.5642098E5,2.45423E5,1.781245E5,9.567375E4,4.8161668E4,1.9492819E5,1.2620791E5,1.089882E5,7.804716E4,1.0714606E5,8.121456E4,4.451625E4,5.4677625E4,3.4334258E4,1.7313799E4,2.4643555E4,6.089475E4,1.13045766E5,6.0326348E4,2.8589883E4,4.579564E4,5.2630664E4,5.497997E4,1.0781094E5,0E0,0E0,1.4369E4,3.358125E4,5.831448E3,5.9305875E4,4.5048125E3,1.0544867E4,1.2253514E4,1.2367674E4,1.3321633E4,2.0031164E4,1.6116797E2,0E0,4.203332E3,7.228872E4,1.8923027E4,4.8194895E4,2.5012352E4,2.5336523E4,2.7982766E4,2.9990182E4,5.5014844E3,3.3945297E4,3.65242E4,1.8373721E3,2.368375E4,1.578877E4,1.4819688E5,0E0,1.7439E4,0E0,0E0,0E0,0E0,0E0,0E0,0E0,0E0,0E0,0E0,0E0,0E0,0E0,0E0,0E0,0E0,0E0,0E0,0E0,0E0,0E0,0E0,0E0,0E0,0E0,0E0,0E0,0E0,0E0,0E0,0E0,0E0,0E0,0E0,0E0,0E0,0E0,0E0,0E0,0E0,0E0,0E0,0E0,0E0,0E0,0E0,0E0,0E0,0E0,0E0,0E0,0E0],"parents":[2147483647,0,0,1,1,2,2,3,3,4,4,5,5,6,6,7,7,8,8,9,9,10,10,11,11,12,12,13,13,14,14,15,15,16,16,17,17,18,18,19,19,20,20,21,21,22,22,23,23,24,24,25,25,26,26,27,27,30,30,31,31,32,32,33,33,34,34,35,35,36,36,37,37,38,38,39,39,40,40,42,42,43,43,44,44,45,45,46,46,47,47,48,48,49,49,50,50,51,51,52,52,53,53,54,54,55,55,56,56,58,58],"right_children":[2,4,6,8,10,12,14,16,18,20,22,24,26,28,30,32,34,36,38,40,42,44,46,48,50,52,54,56,-1,-1,58,60,62,64,66,68,70,72,74,76,78,-1,80,82,84,86,88,90,92,94,96,98,100,102,104,106,108,-1,110,-1,-1,-1,-1,-1,-1,-1,-1,-1,-1,-1,-1,-1,-1,-1,-1,-1,-1,-1,-1,-1,-1,-1,-1,-1,-1,-1,-1,-1,-1,-1,-1,-1,-1,-1,-1,-1,-1,-1,-1,-1,-1,-1,-1,-1,-1,-1,-1,-1,-1,-1,-1],"split_conditions":[-8.776214E-2,1.45977605E-2,8.2580143E-1,1.574527E-1,-1.1613926E0,-1.0662631E-1,2.9888475E0,-9.172794E-1,7.487567E-2,3.1256038E-1,1.9416386E0,-8.641461E-2,4.8909448E-2,8.980574E0,-2.3107107E0,-6.127846E-1,5.7320374E-1,4.4399786E-1,1.0003929E0,1.6049863E0,-7.455781E-1,2.4131504E-1,-3.326998E-1,1.9516836E0,1.2862546E0,-5.714813E-1,-1.0669168E0,-3.099049E-1,1.2100061E1,1.2966243E1,1.1326768E0,-5.140599E-1,4.4817114E0,-2.7463047E-2,-1.101107E0,-2.8769997E-1,-2.2077106E-2,8.6300336E-2,-1.68727E-2,1.7267529E0,-1.5393065E-1,8.842131E0,-6.950059E-1,2.9692572E-1,-1.0642008E-1,-1.0875312E0,-6.843474E-1,-1.0740155E0,2.7776486E-1,1.2835245E0,-1.0795025E0,5.990666E-1,-1.2199832E0,1.4148543E0,3.3760598E0,1.2631721E0,2.4227057E0,2.7217345E0,-6.662647E-1,-4.4471602E0,-2.5900497E0,-7.1640414E-1,2.2346675E0,-1.3389915E0,-2.796763E0,-5.077566E0,-3.3317463E0,-3.1412E0,-1.4181782E0,-6.77227E-1,8.3319014E-1,-1.7511561E0,7.9410625E-1,2.7426538E0,-1.7984162E-1,9.289417E-2,4.2797074E0,3.6630929E0,9.966858E-1,3.0482795E0,6.618309E-2,-6.3616794E-1,-2.347E0,2.1150899E-1,2.1381056E0,-1.6739495E0,9.9069256E-1,7.5009966E0,2.315481E0,-2.435774E0,-8.835749E-1,4.417548E0,-4.9094898E-1,7.540905E-1,-1.6944004E0,3.3603516E-1,4.6377997E0,4.1451616E0,1.388419E0,1.3257188E0,-1.6644058E-1,-2.2755997E0,1.9774629E-2,2.5373461E0,5.677071E0,8.7579197E-1,3.5625522E0,2.7873352E0,8.82737E0,1.8499435E0,6.881742E0],"split_indices":[28,83,26,8,12,83,28,7,59,215,107,24,62,65,16,32,11,36,25,47,58,129,24,58,38,130,3,24,0,0,38,83,5,93,131,46,45,36,15,64,5,0,3,16,24,7,0,11,28,0,0,17,12,0,87,108,90,0,3,0,0,0,0,0,0,0,0,0,0,0,0,0,0,0,0,0,0,0,0,0,0,0,0,0,0,0,0,0,0,0,0,0,0,0,0,0,0,0,0,0,0,0,0,0,0,0,0,0,0,0,0],"split_type":[0,0,0,0,0,0,0,0,0,0,0,0,0,0,0,0,0,0,0,0,0,0,0,0,0,0,0,0,0,0,0,0,0,0,0,0,0,0,0,0,0,0,0,0,0,0,0,0,0,0,0,0,0,0,0,0,0,0,0,0,0,0,0,0,0,0,0,0,0,0,0,0,0,0,0,0,0,0,0,0,0,0,0,0,0,0,0,0,0,0,0,0,0,0,0,0,0,0,0,0,0,0,0,0,0,0,0,0,0,0,0],"sum_hessian":[2.129E3,1.139E3,9.9E2,6.32E2,5.07E2,6.61E2,3.29E2,4.88E2,1.44E2,8.3E1,4.24E2,2.64E2,3.97E2,3.02E2,2.7E1,1.64E2,3.24E2,1.04E2,4E1,6.9E1,1.4E1,3.2E2,1.04E2,1.23E2,1.41E2,2.13E2,1.84E2,3E2,2E0,4E0,2.3E1,1.59E2,5E0,2.88E2,3.6E1,4.5E1,5.9E1,2E1,2E1,6.3E1,6E0,1E1,4E0,2.52E2,6.8E1,8E1,2.4E1,1.1E2,1.3E1,1.33E2,8E0,4.8E1,1.65E2,6E0,1.78E2,9.3E1,2.07E2,7E0,1.6E1,1.22E2,3.7E1,3E0,2E0,1.31E2,1.57E2,1.6E1,2E1,1.4E1,3.1E1,4E1,1.9E1,6E0,1.4E1,1.5E1,5E0,6.1E1,2E0,5E0,1E0,1E0,3E0,1.11E2,1.41E2,5.2E1,1.6E1,2.3E1,5.7E1,2E0,2.2E1,4.6E1,6.4E1,3E0,1E1,1.2E2,1.3E1,1E0,7E0,1.9E1,2.9E1,9.2E1,7.3E1,5E0,1E0,1.72E2,6E0,8.8E1,5E0,1.97E2,1E1,3E0,1.3E1],"tree_param":{"num_deleted":"0","num_feature":"217","num_nodes":"111","size_leaf_vector":"1"}},{"base_weights":[2.6750082E-1,-3.6427826E1,2.290258E1,-5.048054E1,-3.4504735E0,1.672401E1,7.3953804E1,-5.5268597E1,-5.5460787E0,-2.2363316E1,2.3548534E1,6.360903E0,4.119238E1,6.558868E1,2.058711E2,-5.728703E1,2.1054417E1,-2.226051E1,1.6070238E1,-3.3299175E1,9.01827E0,7.053733E0,5.7324074E1,-1.2940875E1,1.7467514E1,2.8245216E1,6.918395E1,7.4837685E1,1.46807165E1,1.0065819E0,2.2952934E2,-2.7094275E1,-6.195526E1,3.569071E1,-1.2229493E0,-2.7696856E1,1.1359059E0,4.8601246E1,3.2393277E0,-4.241671E1,8.482928E0,2.7791155E1,-1.58065405E1,1.142515E0,8.2488815E1,6.621959E0,4.5397923E1,-2.5451622E1,6.889124E0,2.6478027E1,-2.9417758E0,4.4858807E1,1.5520152E1,5.9120228E1,1.9010643E2,1.127253E2,6.1783764E1,-7.4588985E0,6.3188305E1,5.767127E0,1.4316691E1,-2.0696821E0,7.208859E-2,-3.4330094E0,-1.75964E0,3.4859543E0,1.019114E0,-5.2910615E-2,-1.8062344E0,3.3402078E0,9.124012E-1,-3.7118465E-1,1.7290262E0,-6.8211615E-1,-2.5615966E0,-4.0826645E-1,9.037739E-1,2.823699E0,5.320453E-1,-3.822367E-1,-2.0210614E0,-1.4880694E-1,3.234801E0,5.697212E0,1.1768559E0,-3.7674204E-2,3.1107252E0,-2.0534887E0,-3.205203E-1,7.148239E-1,-2.2463903E0,6.4927363E0,1.0992392E0,-1.1427411E0,6.6213006E-1,2.66305E0,6.4763993E-1,5.1902694E-1,2.2662427E0,4.083275E0,1.8155125E0,1.0525996E1,1.1803001E0,3.2244225E0,7.007198E0,2.5866468E0,4.54543E0,7.1647173E-1,-2.3080513E0,4.0076303E0,6.9258577E-1],"categories":[],"categories_nodes":[],"categories_segments":[],"categories_sizes":[],"default_left":[0,0,0,0,0,0,0,0,0,0,0,0,0,0,0,0,0,0,0,0,0,0,0,0,0,0,0,0,0,0,0,0,0,0,0,0,0,0,0,0,0,0,0,0,0,0,0,0,0,0,0,0,0,0,0,0,0,0,0,0,0,0,0,0,0,0,0,0,0,0,0,0,0,0,0,0,0,0,0,0,0,0,0,0,0,0,0,0,0,0,0,0,0,0,0,0,0,0,0,0,0,0,0,0,0,0,0,0,0,0,0],"id":8,"left_children":[1,3,5,7,9,11,13,15,17,19,21,23,25,27,29,31,33,35,37,39,41,43,45,47,49,51,53,55,57,-1,59,61,63,65,-1,67,-1,69,71,73,75,77,79,81,83,-1,85,87,89,91,93,95,97,99,101,103,105,107,109,-1,-1,-1,-1,-1,-1,-1,-1,-1,-1,-1,-1,-1,-1,-1,-1,-1,-1,-1,-1,-1,-1,-1,-1,-1,-1,-1,-1,-1,-1,-1,-1,-1,-1,-1,-1,-1,-1,-1,-1,-1,-1,-1,-1,-1,-1,-1,-1,-1,-1,-1,-1],"loss_changes":[1.7700158E6,3.7658738E5,4.1449138E5,1.22328375E5,1.2511985E5,2.9818784E5,1.4319494E5,8.054325E4,2.059078E4,4.9718883E4,5.5864844E4,1.777305E5,1.24889875E5,6.246575E4,3.0533375E4,6.907675E4,1.0199021E4,8.453838E3,1.0277625E4,4.1121445E4,1.8148549E4,3.0673766E4,2.3550062E4,7.534603E4,9.680833E4,5.0253344E4,1.2262325E5,4.941775E4,2.409798E4,0E0,1.2377781E4,2.821495E4,7.546075E4,4.3090967E3,0E0,6.4724473E3,0E0,2.6485742E3,6.60636E3,2.16225E4,3.341577E3,1.0221252E4,3.106296E3,1.7206611E4,6.589836E3,0E0,2.3330148E4,5.5051008E4,4.593382E4,1.6668644E5,5.2512047E4,2.7190484E4,2.0668988E4,5.0003188E4,2.2221312E4,2.7994844E4,2.0764406E4,1.4153538E4,4.7484727E3,0E0,0E0,0E0,0E0,0E0,0E0,0E0,0E0,0E0,0E0,0E0,0E0,0E0,0E0,0E0,0E0,0E0,0E0,0E0,0E0,0E0,0E0,0E0,0E0,0E0,0E0,0E0,0E0,0E0,0E0,0E0,0E0,0E0,0E0,0E0,0E0,0E0,0E0,0E0,0E0,0E0,0E0,0E0,0E0,0E0,0E0,0E0,0E0,0E0,0E0,0E0,0E0],"parents":[2147483647,0,0,1,1,2,2,3,3,4,4,5,5,6,6,7,7,8,8,9,9,10,10,11,11,12,12,13,13,14,14,15,15,16,16,17,17,18,18,19,19,20,20,21,21,22,22,23,23,24,24,25,25,26,26,27,27,28,28,30,30,31,31,32,32,33,33,35,35,37,37,38,38,39,39,40,40,41,41,42,42,43,43,44,44,46,46,47,47,48,48,49,49,50,50,51,51,52,52,53,53,54,54,55,55,56,56,57,57,58,58],"right_children":[2,4,6,8,10,12,14,16,18,20,22,24,26,28,30,32,34,36,38,40,42,44,46,48,50,52,54,56,58,-1,60,62,64,66,-1,68,-1,70,72,74,76,78,80,82,84,-1,86,88,90,92,94,96,98,100,102,104,106,108,110,-1,-1,-1,-1,-1,-1,-1,-1,-1,-1,-1,-1,-1,-1,-1,-1,-1,-1,-1,-1,-1,-1,-1,-1,-1,-1,-1,-1,-1,-1,-1,-1,-1,-1,-1,-1,-1,-1,-1,-1,-1,-1,-1,-1,-1,-1,-1,-1,-1,-1,-1,-1],"split_conditions":[-5.4293066E-1,7.0101774E-1,1.6116933E0,3.865181E-1,-7.831387E-1,7.0101774E-1,4.3331437E0,3.2881732E0,9.9848473E-1,2.6780307E0,1.9416386E0,1.4571042E-1,-1.3394526E-2,1.4463602E-1,-1.5393065E-1,-7.649614E-1,-5.2147937E-1,1.9186101E0,-4.262744E-2,3.0015397E-1,1.4476096E-2,3.1147066E-1,-6.843474E-1,1.4650677E-1,4.769632E-2,-3.827885E-2,9.748378E-1,-1.0831019E0,7.0101774E-1,1.0065819E0,1.881121E0,2.4978818E-1,8.100988E-1,-1.6010092E0,-1.2229493E0,-6.258506E-1,1.1359059E0,-1.057982E0,-2.3037035E-2,-9.9475914E-1,4.791773E-1,-8.319804E-1,1.6385365E0,9.847353E-1,-4.2039195E-1,6.621959E0,4.5951453E-1,-2.182933E-1,4.0771312E-1,-1.144162E0,-3.2912067E-1,6.004379E-1,1.4405826E0,6.0390574E-1,9.762797E-1,-4.5160398E-1,7.0101774E-1,7.556885E-3,9.812885E-1,5.767127E0,1.4316691E1,-2.0696821E0,7.208859E-2,-3.4330094E0,-1.75964E0,3.4859543E0,1.019114E0,-5.2910615E-2,-1.8062344E0,3.3402078E0,9.124012E-1,-3.7118465E-1,1.7290262E0,-6.8211615E-1,-2.5615966E0,-4.0826645E-1,9.037739E-1,2.823699E0,5.320453E-1,-3.822367E-1,-2.0210614E0,-1.4880694E-1,3.234801E0,5.697212E0,1.1768559E0,-3.7674204E-2,3.1107252E0,-2.0534887E0,-3.205203E-1,7.148239E-1,-2.2463903E0,6.4927363E0,1.0992392E0,-1.1427411E0,6.6213006E-1,2.66305E0,6.4763993E-1,5.1902694E-1,2.2662427E0,4.083275E0,1.8155125E0,1.0525996E1,1.1803001E0,3.2244225E0,7.007198E0,2.5866468E0,4.54543E0,7.1647173E-1,-2.3080513E0,4.0076303E0,6.9258577E-1],"split_indices":[28,107,28,6,24,107,39,147,6,119,107,26,97,66,5,15,4,2,45,57,19,44,0,62,95,15,105,17,107,0,90,5,97,23,0,66,0,14,45,21,35,58,15,97,18,0,0,83,95,12,101,66,147,15,0,3,107,5,14,0,0,0,0,0,0,0,0,0,0,0,0,0,0,0,0,0,0,0,0,0,0,0,0,0,0,0,0,0,0,0,0,0,0,0,0,0,0,0,0,0,0,0,0,0,0,0,0,0,0,0,0],"split_type":[0,0,0,0,0,0,0,0,0,0,0,0,0,0,0,0,0,0,0,0,0,0,0,0,0,0,0,0,0,0,0,0,0,0,0,0,0,0,0,0,0,0,0,0,0,0,0,0,0,0,0,0,0,0,0,0,0,0,0,0,0,0,0,0,0,0,0,0,0,0,0,0,0,0,0,0,0,0,0,0,0,0,0,0,0,0,0,0,0,0,0,0,0,0,0,0,0,0,0,0,0,0,0,0,0,0,0,0,0,0,0],"sum_hessian":[2.129E3,8.12E2,1.317E3,5.69E2,2.43E2,1.176E3,1.41E2,5.14E2,5.5E1,1.43E2,1E2,8.27E2,3.49E2,1.34E2,7E0,5.01E2,1.3E1,3.1E1,2.4E1,1.06E2,3.7E1,6.8E1,3.2E1,3.02E2,5.25E2,2.4E2,1.09E2,1.13E2,2.1E1,1E0,6E0,6.8E1,4.33E2,1E1,3E0,2.8E1,3E0,6E0,1.8E1,8.7E1,1.9E1,2.1E1,1.6E1,6.4E1,4E0,3E0,2.9E1,1.85E2,1.17E2,3.64E2,1.61E2,1.03E2,1.37E2,1.02E2,7E0,2.7E1,8.6E1,1.5E1,6E0,3E0,3E0,4.5E1,2.3E1,3.45E2,8.8E1,2E0,8E0,7E0,2.1E1,3E0,3E0,1.4E1,4E0,2.1E1,6.6E1,7E0,1.2E1,7E0,1.4E1,1.3E1,3E0,6.1E1,3E0,2E0,2E0,8E0,2.1E1,1.01E2,8.4E1,1.03E2,1.4E1,1.4E1,3.5E2,7.2E1,8.9E1,8.1E1,2.2E1,1.18E2,1.9E1,5E1,5.2E1,6E0,1E0,1.1E1,1.6E1,6.6E1,2E1,1E1,5E0,4E0,2E0],"tree_param":{"num_deleted":"0","num_feature":"217","num_nodes":"111","size_leaf_vector":"1"}},{"base_weights":[2.9511663E-1,-2.5376265E1,2.9825974E1,-4.235012E1,-4.175817E0,2.4540464E1,8.587456E1,-5.7651707E1,-1.883276E1,3.1657434E1,-1.1248328E1,1.2278244E1,4.0837513E1,6.7119736E1,1.7619406E2,-5.8955017E1,5.2669582E1,-9.631286E0,-4.447884E1,1.5093986E1,1.5271756E2,-2.0150293E1,1.6073376E1,-1.2603583E1,2.2051302E1,3.6810486E1,1.5448E2,8.040944E1,2.8546024E1,1.8672769E2,9.814171E-1,-7.90769E1,-5.155808E1,3.4401944E0,9.489377E-1,-1.7725384E1,1.1567456E1,-4.8699387E1,3.3114456E1,8.503782E0,6.922397E1,1.3425515E0,8.185965E0,-2.9165434E1,1.3197255E1,3.7287707E0,5.5426964E1,2.42251E1,-2.2253887E1,2.5902555E1,-2.452574E1,5.3564053E1,1.7979368E1,1.9437747E2,1.6116333E1,3.8248554E1,8.93248E1,-3.3496296E0,5.008893E1,1.3250748E2,1.3779816E1,-4.2932186E0,-1.7445128E0,-8.425111E-1,-2.759774E0,-4.1574144E0,-7.5465095E-1,1.5494971E-1,2.8878312E0,-2.675004E0,-4.5035535E-1,2.4132974E0,5.9876555E-1,2.541933E-1,4.0453672E0,3.7002265E0,8.94001E-1,-5.6389695E-1,-2.1534245E0,2.9725346E-1,2.3574858E0,-1.4316186E0,9.3435E-1,7.0302315E0,2.0953484E0,-4.458719E-1,2.021595E0,-2.120271E0,-4.3003535E-1,2.943979E0,9.30607E-1,-6.6054446E-1,-2.9099712E0,3.3857725E0,2.025469E0,1.1532086E0,-1.3026971E0,1.8440628E-1,1.075777E1,4.2707063E-2,1.0459508E0,2.909274E0,5.968435E-1,3.7928512E0,5.728456E0,6.764049E-1,-2.0807226E0,1.139254E0,2.8329268E0,6.998147E0,1.6352104E0],"categories":[],"categories_nodes":[],"categories_segments":[],"categories_sizes":[],"default_left":[0,0,0,0,0,0,0,0,0,0,0,0,0,0,0,0,0,0,0,0,0,0,0,0,0,0,0,0,0,0,0,0,0,0,0,0,0,0,0,0,0,0,0,0,0,0,0,0,0,0,0,0,0,0,0,0,0,0,0,0,0,0,0,0,0,0,0,0,0,0,0,0,0,0,0,0,0,0,0,0,0,0,0,0,0,0,0,0,0,0,0,0,0,0,0,0,0,0,0,0,0,0,0,0,0,0,0,0,0,0,0],"id":9,"left_children":[1,3,5,7,9,11,13,15,17,19,21,23,25,27,29,31,33,35,37,39,41,43,45,47,49,51,53,55,57,59,-1,61,63,-1,-1,65,67,69,71,73,75,-1,-1,77,79,81,83,85,87,89,91,93,95,97,99,101,103,105,107,109,-1,-1,-1,-1,-1,-1,-1,-1,-1,-1,-1,-1,-1,-1,-1,-1,-1,-1,-1,-1,-1,-1,-1,-1,-1,-1,-1,-1,-1,-1,-1,-1,-1,-1,-1,-1,-1,-1,-1,-1,-1,-1,-1,-1,-1,-1,-1,-1,-1,-1,-1],"loss_changes":[1.6155052E6,4.1005606E5,2.9147162E5,2.2670112E5,1.2909909E5,1.8075169E5,1.3215762E5,5.8173875E4,5.880303E4,1.6612944E5,1.0369105E5,1.2648396E5,1.7233606E5,3.461422E4,1.942375E4,5.23335E4,1.4120771E3,3.2119791E4,2.3226727E4,2.6165908E4,9.451453E3,9.6888055E4,5.0802797E4,5.2784074E4,6.7544016E4,1.1797609E5,6.8632E4,1.6505031E4,1.3910281E4,2.6121594E4,0E0,2.699575E4,3.4418938E4,0E0,0E0,2.1994336E4,2.0160875E4,1.1522797E4,7.031582E2,1.6426436E4,6.4041797E2,0E0,0E0,6.243303E4,1.6709531E4,3.974435E4,2.2897734E4,1.7011717E4,3.182579E4,8.184772E4,1.0280504E4,3.40205E4,4.0679156E4,3.882778E4,2.753302E2,5.0757627E3,5.9285E3,6.3753735E3,8.6153516E2,2.8634062E3,0E0,0E0,0E0,0E0,0E0,0E0,0E0,0E0,0E0,0E0,0E0,0E0,0E0,0E0,0E0,0E0,0E0,0E0,0E0,0E0,0E0,0E0,0E0,0E0,0E0,0E0,0E0,0E0,0E0,0E0,0E0,0E0,0E0,0E0,0E0,0E0,0E0,0E0,0E0,0E0,0E0,0E0,0E0,0E0,0E0,0E0,0E0,0E0,0E0,0E0,0E0],"parents":[2147483647,0,0,1,1,2,2,3,3,4,4,5,5,6,6,7,7,8,8,9,9,10,10,11,11,12,12,13,13,14,14,15,15,16,16,17,17,18,18,19,19,20,20,21,21,22,22,23,23,24,24,25,25,26,26,27,27,28,28,29,29,31,31,32,32,35,35,36,36,37,37,38,38,39,39,40,40,43,43,44,44,45,45,46,46,47,47,48,48,49,49,50,50,51,51,52,52,53,53,54,54,55,55,56,56,57,57,58,58,59,59],"right_children":[2,4,6,8,10,12,14,16,18,20,22,24,26,28,30,32,34,36,38,40,42,44,46,48,50,52,54,56,58,60,-1,62,64,-1,-1,66,68,70,72,74,76,-1,-1,78,80,82,84,86,88,90,92,94,96,98,100,102,104,106,108,110,-1,-1,-1,-1,-1,-1,-1,-1,-1,-1,-1,-1,-1,-1,-1,-1,-1,-1,-1,-1,-1,-1,-1,-1,-1,-1,-1,-1,-1,-1,-1,-1,-1,-1,-1,-1,-1,-1,-1,-1,-1,-1,-1,-1,-1,-1,-1,-1,-1,-1,-1],"split_conditions":[-8.776214E-2,1.45977605E-2,1.9762938E0,-4.1823503E-1,-1.1613926E0,5.1427394E-1,2.8717332E0,2.471872E0,1.033793E0,2.5732908E-1,1.9416386E0,-2.0772004E-1,1.4869034E0,1.0784109E0,-1.18605174E-1,-1.102254E0,-1.2898306E0,1.0037307E0,8.575041E-1,1.6049863E0,7.5923586E-1,2.4131504E-1,-3.326998E-1,5.03774E-1,3.0909762E-1,1.357741E-2,-1.144162E0,5.3197634E-1,-4.0544093E-1,1.881121E0,9.814171E-1,2.5402266E-1,-1.2557281E0,3.4401944E0,9.489377E-1,-6.950345E-1,6.0381156E-1,1.3447632E0,-1.3939096E0,1.7267529E0,-1.5393065E-1,1.3425515E0,8.185965E0,2.9692572E-1,-8.237468E-2,-8.47161E-1,-6.843474E-1,9.5116526E-2,-8.76391E-1,-1.1331824E0,5.381588E-1,4.1001862E-1,1.5174342E0,-6.034476E-1,-9.49421E-1,8.1694067E-1,1.1326768E0,1.4116795E0,1.3164047E0,2.60043E0,1.3779816E1,-4.2932186E0,-1.7445128E0,-8.425111E-1,-2.759774E0,-4.1574144E0,-7.5465095E-1,1.5494971E-1,2.8878312E0,-2.675004E0,-4.5035535E-1,2.4132974E0,5.9876555E-1,2.541933E-1,4.0453672E0,3.7002265E0,8.94001E-1,-5.6389695E-1,-2.1534245E0,2.9725346E-1,2.3574858E0,-1.4316186E0,9.3435E-1,7.0302315E0,2.0953484E0,-4.458719E-1,2.021595E0,-2.120271E0,-4.3003535E-1,2.943979E0,9.30607E-1,-6.6054446E-1,-2.9099712E0,3.3857725E0,2.025469E0,1.1532086E0,-1.3026971E0,1.8440628E-1,1.075777E1,4.2707063E-2,1.0459508E0,2.909274E0,5.968435E-1,3.7928512E0,5.728456E0,6.764049E-1,-2.0807226E0,1.139254E0,2.8329268E0,6.998147E0,1.6352104E0],"split_indices":[28,83,28,46,12,108,39,59,103,57,107,7,90,11,19,7,0,8,25,47,0,129,24,68,95,95,12,22,90,90,0,27,27,0,0,34,21,90,0,64,5,0,0,16,24,32,0,28,14,17,5,16,43,3,2,9,38,44,61,4,0,0,0,0,0,0,0,0,0,0,0,0,0,0,0,0,0,0,0,0,0,0,0,0,0,0,0,0,0,0,0,0,0,0,0,0,0,0,0,0,0,0,0,0,0,0,0,0,0,0,0],"split_type":[0,0,0,0,0,0,0,0,0,0,0,0,0,0,0,0,0,0,0,0,0,0,0,0,0,0,0,0,0,0,0,0,0,0,0,0,0,0,0,0,0,0,0,0,0,0,0,0,0,0,0,0,0,0,0,0,0,0,0,0,0,0,0,0,0,0,0,0,0,0,0,0,0,0,0,0,0,0,0,0,0,0,0,0,0,0,0,0,0,0,0,0,0,0,0,0,0,0,0,0,0,0,0,0,0,0,0,0,0,0,0],"sum_hessian":[2.129E3,1.139E3,9.9E2,6.32E2,5.07E2,9.06E2,8.4E1,3.82E2,2.5E2,8.3E1,4.24E2,5.18E2,3.88E2,7.1E1,1.3E1,3.78E2,4E0,1.85E2,6.5E1,7.4E1,9E0,3.2E2,1.04E2,1.46E2,3.72E2,3.76E2,1.2E1,5.2E1,1.9E1,1.2E1,1E0,9.9E1,2.79E2,2E0,2E0,1.34E2,5.1E1,6.2E1,3E0,6.7E1,7E0,1E0,8E0,2.52E2,6.8E1,8E1,2.4E1,3E1,1.16E2,3.44E2,2.8E1,1.98E2,1.78E2,9E0,3E0,1E1,4.2E1,8E0,1.1E1,9E0,3E0,8.5E1,1.4E1,2.7E1,2.52E2,4E0,1.3E2,4.4E1,7E0,5.5E1,7E0,1E0,2E0,6.5E1,2E0,6E0,1E0,1.11E2,1.41E2,5.7E1,1.1E1,2.5E1,5.5E1,2E0,2.2E1,1E1,2E1,4.6E1,7E1,6.1E1,2.83E2,2.2E1,6E0,9.3E1,1.05E2,1.6E2,1.8E1,1E0,8E0,1E0,2E0,5E0,5E0,3E1,1.2E1,6E0,2E0,3E0,8E0,8E0,1E0],"tree_param":{"num_deleted":"0","num_feature":"217","num_nodes":"111","size_leaf_vector":"1"}},{"base_weights":[3.1574538E-1,-2.409012E1,2.8390793E1,-4.024404E1,-3.9138975E0,1.6700253E1,5.1756695E1,-5.478283E1,-1.7899021E1,3.0293884E1,-1.0665755E1,-4.2101593E0,3.0581053E1,4.527332E1,1.200676E2,-5.6034237E1,5.10304E1,-9.159774E0,-4.2256615E1,1.0213276E1,1.21983795E2,-1.9142971E1,1.535188E1,-2.3527458E1,1.2688116E1,1.8429556E1,4.4472076E1,4.3349342E1,1.1161063E1,1.1658426E1,9.150209E1,-6.957833E1,-4.571232E1,-2.2348824E-1,3.3011441E0,-1.4001104E1,2.4102589E1,-4.6314022E1,3.2211754E1,-3.9205925E1,1.6326614E1,7.8458037E0,2.0736012E1,-2.7717901E1,1.2575877E1,-2.403612E1,2.6692856E1,-1.9635532E0,-3.2675743E1,8.3078575E0,7.6495514E1,4.485946E1,1.0516937E1,-3.5556133E1,4.735322E1,1.7278955E1,5.4922745E1,5.2729103E1,1.1125061E2,-3.845678E0,-2.1809144E0,-2.032727E0,-4.156609E0,-3.991118E0,-5.9215987E-1,2.3862188E0,4.654462E-1,-2.5048153E0,-1.0164871E-1,2.3529649E0,5.7880706E-1,-2.9516838E0,6.7591095E-1,3.050042E-1,2.2992897E0,2.777485E0,-9.274178E-2,-5.359535E-1,-2.0465117E0,2.8264764E-1,2.2494345E0,-2.1879122E0,6.8480563E-1,-1.4039205E-1,2.0219877E0,-1.3365082E0,2.1201396E0,2.057168E0,-1.7448351E0,6.84175E-1,-1.2474557E0,5.1136484E0,1.7709483E0,3.7415826E0,1.1691344E0,8.966574E-2,1.6283125E0,-2.0804474E0,1.9018555E-2,2.2456625E0,5.5110145E0,1.331889E0,3.707862E-2,2.4343297E0,7.6361327E0,1.0781891E0,2.8912482E0,6.37121E0,1.74586E0],"categories":[],"categories_nodes":[],"categories_segments":[],"categories_sizes":[],"default_left":[0,0,0,0,0,0,0,0,0,0,0,0,0,0,0,0,0,0,0,0,0,0,0,0,0,0,0,0,0,0,0,0,0,0,0,0,0,0,0,0,0,0,0,0,0,0,0,0,0,0,0,0,0,0,0,0,0,0,0,0,0,0,0,0,0,0,0,0,0,0,0,0,0,0,0,0,0,0,0,0,0,0,0,0,0,0,0,0,0,0,0,0,0,0,0,0,0,0,0,0,0,0,0,0,0,0,0,0,0],"id":10,"left_children":[1,3,5,7,9,11,13,15,17,19,21,23,25,27,29,31,33,35,37,39,41,43,45,47,49,51,53,55,-1,-1,57,59,61,-1,-1,63,65,67,69,71,73,-1,75,77,79,81,83,85,87,89,91,93,95,97,99,101,103,105,107,-1,-1,-1,-1,-1,-1,-1,-1,-1,-1,-1,-1,-1,-1,-1,-1,-1,-1,-1,-1,-1,-1,-1,-1,-1,-1,-1,-1,-1,-1,-1,-1,-1,-1,-1,-1,-1,-1,-1,-1,-1,-1,-1,-1,-1,-1,-1,-1,-1,-1],"loss_changes":[1.4601511E6,3.713972E5,2.6983725E5,2.0466175E5,1.17653875E5,1.9227644E5,1.4071625E5,5.35745E4,5.304257E4,1.5341403E5,9.403064E4,8.68022E4,6.636147E4,9.406094E4,6.912656E4,4.9804125E4,4.455533E3,3.0289805E4,2.1433672E4,2.178824E4,4.9798438E4,8.7656375E4,4.754493E4,2.4397664E4,3.9052484E4,4.4281992E4,4.4339688E4,8.986969E4,0E0,0E0,1.2510875E4,2.7493625E4,3.787925E4,0E0,0E0,2.220655E4,7.9426025E3,1.0449609E4,6.807876E2,9.161239E3,1.8828043E4,0E0,4.0353892E3,5.638361E4,1.522869E4,1.8459152E4,3.336806E4,4.288799E4,1.5699359E4,2.429759E4,5.9072344E3,2.9791828E4,3.187168E4,1.5384453E3,2.2507156E4,1.4528666E4,1.19422625E5,3.412168E2,1.4069484E4,0E0,0E0,0E0,0E0,0E0,0E0,0E0,0E0,0E0,0E0,0E0,0E0,0E0,0E0,0E0,0E0,0E0,0E0,0E0,0E0,0E0,0E0,0E0,0E0,0E0,0E0,0E0,0E0,0E0,0E0,0E0,0E0,0E0,0E0,0E0,0E0,0E0,0E0,0E0,0E0,0E0,0E0,0E0,0E0,0E0,0E0,0E0,0E0,0E0,0E0],"parents":[2147483647,0,0,1,1,2,2,3,3,4,4,5,5,6,6,7,7,8,8,9,9,10,10,11,11,12,12,13,13,14,14,15,15,16,16,17,17,18,18,19,19,20,20,21,21,22,22,23,23,24,24,25,25,26,26,27,27,30,30,31,31,32,32,35,35,36,36,37,37,38,38,39,39,40,40,42,42,43,43,44,44,45,45,46,46,47,47,48,48,49,49,50,50,51,51,52,52,53,53,54,54,55,55,56,56,57,57,58,58],"right_children":[2,4,6,8,10,12,14,16,18,20,22,24,26,28,30,32,34,36,38,40,42,44,46,48,50,52,54,56,-1,-1,58,60,62,-1,-1,64,66,68,70,72,74,-1,76,78,80,82,84,86,88,90,92,94,96,98,100,102,104,106,108,-1,-1,-1,-1,-1,-1,-1,-1,-1,-1,-1,-1,-1,-1,-1,-1,-1,-1,-1,-1,-1,-1,-1,-1,-1,-1,-1,-1,-1,-1,-1,-1,-1,-1,-1,-1,-1,-1,-1,-1,-1,-1,-1,-1,-1,-1,-1,-1,-1,-1],"split_conditions":[-8.776214E-2,1.45977605E-2,8.2580143E-1,-4.1823503E-1,-1.1613926E0,-1.0662631E-1,2.9888475E0,8.228927E0,1.033793E0,3.1256038E-1,1.9416386E0,-8.641461E-2,4.8909448E-2,8.980574E0,-2.1941843E0,-9.172794E-1,1.7982617E-1,1.608639E0,8.575041E-1,-1.6147402E-1,-7.455781E-1,2.4131504E-1,-1.377077E-2,-2.540643E-1,1.2862546E0,-5.714813E-1,-1.0669168E0,-3.099049E-1,1.1161063E1,1.1658426E1,1.0204833E0,-5.140599E-1,1.0080372E0,-2.2348824E-1,3.3011441E0,-6.950345E-1,-6.258506E-1,2.1519134E0,-1.3939096E0,-5.1372445E-1,6.628445E-1,7.8458037E0,-6.950059E-1,2.9692572E-1,-8.237468E-2,-8.430196E-1,-9.4750994E-1,1.1779559E-1,-1.0763223E0,-6.337854E-1,1.0834041E0,5.990666E-1,6.4117557E-1,1.4148543E0,4.4492698E-1,4.338504E-1,1.0340179E0,-1.392355E0,1.8081248E0,-3.845678E0,-2.1809144E0,-2.032727E0,-4.156609E0,-3.991118E0,-5.9215987E-1,2.3862188E0,4.654462E-1,-2.5048153E0,-1.0164871E-1,2.3529649E0,5.7880706E-1,-2.9516838E0,6.7591095E-1,3.050042E-1,2.2992897E0,2.777485E0,-9.274178E-2,-5.359535E-1,-2.0465117E0,2.8264764E-1,2.2494345E0,-2.1879122E0,6.8480563E-1,-1.4039205E-1,2.0219877E0,-1.3365082E0,2.1201396E0,2.057168E0,-1.7448351E0,6.84175E-1,-1.2474557E0,5.1136484E0,1.7709483E0,3.7415826E0,1.1691344E0,8.966574E-2,1.6283125E0,-2.0804474E0,1.9018555E-2,2.2456625E0,5.5110145E0,1.331889E0,3.707862E-2,2.4343297E0,7.6361327E0,1.0781891E0,2.8912482E0,6.37121E0,1.74586E0],"split_indices":[28,83,26,46,12,83,28,117,103,215,107,24,62,65,15,7,2,6,25,94,58,129,120,57,38,130,3,24,0,0,40,83,11,0,0,34,66,90,0,28,118,0,3,16,24,28,24,39,14,105,36,17,58,0,40,93,105,0,47,0,0,0,0,0,0,0,0,0,0,0,0,0,0,0,0,0,0,0,0,0,0,0,0,0,0,0,0,0,0,0,0,0,0,0,0,0,0,0,0,0,0,0,0,0,0,0,0,0,0],"split_type":[0,0,0,0,0,0,0,0,0,0,0,0,0,0,0,0,0,0,0,0,0,0,0,0,0,0,0,0,0,0,0,0,0,0,0,0,0,0,0,0,0,0,0,0,0,0,0,0,0,0,0,0,0,0,0,0,0,0,0,0,0,0,0,0,0,0,0,0,0,0,0,0,0,0,0,0,0,0,0,0,0,0,0,0,0,0,0,0,0,0,0,0,0,0,0,0,0,0,0,0,0,0,0,0,0,0,0,0,0],"sum_hessian":[2.129E3,1.139E3,9.9E2,6.32E2,5.07E2,6.61E2,3.29E2,3.82E2,2.5E2,8.3E1,4.24E2,2.64E2,3.97E2,3.02E2,2.7E1,3.78E2,4E0,1.85E2,6.5E1,6.9E1,1.4E1,3.2E2,1.04E2,1.23E2,1.41E2,2.13E2,1.84E2,3E2,2E0,4E0,2.3E1,1.61E2,2.17E2,1E0,3E0,1.62E2,2.3E1,6.2E1,3E0,7E0,6.2E1,1E1,4E0,2.52E2,6.8E1,2.3E1,8.1E1,3.7E1,8.6E1,1.33E2,8E0,4.8E1,1.65E2,6E0,1.78E2,9.3E1,2.07E2,9E0,1.4E1,1.24E2,3.7E1,1.93E2,2.4E1,4E0,1.58E2,8E0,1.5E1,5.7E1,5E0,1E0,2E0,5E0,2E0,4.7E1,1.5E1,1E0,3E0,1.11E2,1.41E2,5.7E1,1.1E1,1.5E1,8E0,2.6E1,5.5E1,2.4E1,1.3E1,2E0,8.4E1,1.15E2,1.8E1,4E0,4E0,1.9E1,2.9E1,1.19E2,4.6E1,5E0,1E0,1.73E2,5E0,5.9E1,3.4E1,1.96E2,1.1E1,2E0,7E0,1.1E1,3E0],"tree_param":{"num_deleted":"0","num_feature":"217","num_nodes":"109","size_leaf_vector":"1"}},{"base_weights":[3.312875E-1,-2.2885052E1,2.7037943E1,-3.3658264E1,4.4690447E0,1.9596455E1,6.1149666E1,-4.485197E1,-1.1270567E1,-1.7801285E1,2.3881475E1,-7.1871076E0,2.9511698E1,1.0970603E2,4.8408966E1,-4.989179E1,-6.19503E0,-1.0940373E0,-3.350421E1,7.5363307E0,-3.158118E1,1.7998034E1,1.0131783E2,6.004438E0,-3.456967E1,2.6287725E1,7.133478E1,7.663155E1,1.779088E2,8.385114E1,2.8833506E1,-2.0596735E1,-5.5154625E1,1.2558773E1,-2.5341295E1,-5.8332815E0,6.929592E1,-4.142299E0,-2.738139E1,1.6606714E1,-1.9565245E1,-6.4341515E1,-2.488544E1,7.5267234E0,3.9391354E1,1.3536356E2,2.658111E1,-1.909222E1,2.1591555E1,5.465996E0,-4.1878826E1,2.30873E1,6.475274E1,5.047658E1,8.978932E1,9.781911E1,-1.0296811E1,-1.4926377E-1,9.814837E0,1.3765657E2,6.8682724E1,1.6089195E1,8.486165E1,1.0256323E0,-1.4773647E0,-3.5903318E0,-2.2597454E0,1.2813503E0,-1.003043E0,-1.6692486E0,4.0776977E-1,2.9645333E-1,-1.1222136E0,-6.337751E-1,6.482887E0,1.8981411E0,-1.5250664E0,1.7002499E0,1.4330283E-1,-1.7885624E0,-1.4696684E-1,-8.1830114E-1,-3.5013077E0,-1.4852628E0,1.6762121E-1,2.755171E-1,2.979162E0,2.7537746E0,-1.6021539E-2,7.264066E0,1.6484795E0,2.7080476E0,3.0729562E-1,-1.2517956E0,6.881158E-2,2.0226934E0,2.970695E-1,2.2612832E0,-6.40615E-1,4.9135336E-1,-2.1899066E0,7.04966E-1,1.6317271E0,2.4103765E0,4.31241E0,-1.5639496E-1,2.6589062E0,3.2491875E0,6.505853E0,6.489258E-2,5.395547E0,3.9850387E-1,-1.5610197E0,8.563575E0,2.2208154E0,4.5945284E-1,3.743306E0,4.8289728E-1,3.5175736E0,9.426E0,1.9232619E0],"categories":[],"categories_nodes":[],"categories_segments":[],"categories_sizes":[],"default_left":[0,0,0,0,0,0,0,0,0,0,0,0,0,0,0,0,0,0,0,0,0,0,0,0,0,0,0,0,0,0,0,0,0,0,0,0,0,0,0,0,0,0,0,0,0,0,0,0,0,0,0,0,0,0,0,0,0,0,0,0,0,0,0,0,0,0,0,0,0,0,0,0,0,0,0,0,0,0,0,0,0,0,0,0,0,0,0,0,0,0,0,0,0,0,0,0,0,0,0,0,0,0,0,0,0,0,0,0,0,0,0,0,0,0,0,0,0,0,0,0,0],"id":11,"left_children":[1,3,5,7,9,11,13,15,17,19,21,23,25,27,29,31,33,35,37,39,41,43,45,47,49,51,53,55,57,59,61,63,65,67,69,71,73,-1,75,77,79,81,83,85,87,89,91,93,95,97,99,101,103,105,107,109,111,-1,-1,113,115,117,119,-1,-1,-1,-1,-1,-1,-1,-1,-1,-1,-1,-1,-1,-1,-1,-1,-1,-1,-1,-1,-1,-1,-1,-1,-1,-1,-1,-1,-1,-1,-1,-1,-1,-1,-1,-1,-1,-1,-1,-1,-1,-1,-1,-1,-1,-1,-1,-1,-1,-1,-1,-1,-1,-1,-1,-1,-1,-1],"loss_changes":[1.3212842E6,3.3609875E5,2.5035912E5,2.0448631E5,1.4006488E5,2.16648E5,1.04188875E5,1.05870125E5,6.1958957E4,5.2959613E4,7.699398E4,8.003683E4,7.83525E4,6.757434E4,9.610144E4,7.317625E4,2.3298434E4,6.3453715E4,2.3713102E4,1.3599285E4,1.9895594E4,3.5994125E4,2.6935477E4,5.9089906E4,2.129804E4,6.670491E4,1.163475E4,4.8894E4,3.7174906E4,3.1352531E4,6.5040367E4,2.8202484E4,6.4421125E4,1.4581371E4,8.894234E3,3.491147E4,6.1018793E4,0E0,1.7059773E4,9.704158E3,3.6670093E3,3.2175234E3,1.1395992E4,1.121791E4,3.302843E4,3.3342969E3,2.485129E3,7.090629E3,2.721309E4,9.300312E3,6.484E3,4.3560594E4,1.0779359E4,3.352254E3,1.2551906E4,2.0315531E4,2.5420813E3,0E0,0E0,2.3735406E4,1.4394828E4,2.6191564E4,7.4507914E4,0E0,0E0,0E0,0E0,0E0,0E0,0E0,0E0,0E0,0E0,0E0,0E0,0E0,0E0,0E0,0E0,0E0,0E0,0E0,0E0,0E0,0E0,0E0,0E0,0E0,0E0,0E0,0E0,0E0,0E0,0E0,0E0,0E0,0E0,0E0,0E0,0E0,0E0,0E0,0E0,0E0,0E0,0E0,0E0,0E0,0E0,0E0,0E0,0E0,0E0,0E0,0E0,0E0,0E0,0E0,0E0,0E0,0E0],"parents":[2147483647,0,0,1,1,2,2,3,3,4,4,5,5,6,6,7,7,8,8,9,9,10,10,11,11,12,12,13,13,14,14,15,15,16,16,17,17,18,18,19,19,20,20,21,21,22,22,23,23,24,24,25,25,26,26,27,27,28,28,29,29,30,30,31,31,32,32,33,33,34,34,35,35,36,36,38,38,39,39,40,40,41,41,42,42,43,43,44,44,45,45,46,46,47,47,48,48,49,49,50,50,51,51,52,52,53,53,54,54,55,55,56,56,59,59,60,60,61,61,62,62],"right_children":[2,4,6,8,10,12,14,16,18,20,22,24,26,28,30,32,34,36,38,40,42,44,46,48,50,52,54,56,58,60,62,64,66,68,70,72,74,-1,76,78,80,82,84,86,88,90,92,94,96,98,100,102,104,106,108,110,112,-1,-1,114,116,118,120,-1,-1,-1,-1,-1,-1,-1,-1,-1,-1,-1,-1,-1,-1,-1,-1,-1,-1,-1,-1,-1,-1,-1,-1,-1,-1,-1,-1,-1,-1,-1,-1,-1,-1,-1,-1,-1,-1,-1,-1,-1,-1,-1,-1,-1,-1,-1,-1,-1,-1,-1,-1,-1,-1,-1,-1,-1,-1],"split_conditions":[-8.776214E-2,7.0101774E-1,7.2062933E-1,-5.960993E-1,-7.831387E-1,-5.140599E-1,-8.3085E-1,1.4203618E0,4.769632E-2,-3.9400125E-1,3.1256038E-1,-8.314003E-2,2.2496912E0,7.138873E-1,-9.386527E-1,-7.649614E-1,1.07672185E-1,1.0705392E0,-1.3848746E0,5.710547E-1,-1.3356773E0,1.9416386E0,-7.455781E-1,-1.2370357E-1,-1.535745E0,2.6780307E0,4.913569E-1,9.133364E-1,-9.49421E-1,-1.9940228E0,-1.4162583E-2,-1.1530389E0,-9.106725E-1,1.7807765E0,1.5457934E-1,3.3715446E-2,-1.4030674E-1,-4.142299E0,-1.5715965E0,-1.7435849E-1,-8.530537E-1,-1.4306673E-1,1.6562147E0,1.6445664E0,1.6809634E0,9.312785E-1,-6.8879586E-1,2.979988E-1,-6.166816E-2,-1.2767776E0,-1.5470804E0,4.8909448E-2,1.2631721E0,-3.9715824E-1,1.1188586E-1,4.792586E-1,-5.377916E-1,-1.4926377E-1,9.814837E0,1.0151621E0,3.2334885E-1,4.4817114E0,2.7243942E-1,1.0256323E0,-1.4773647E0,-3.5903318E0,-2.2597454E0,1.2813503E0,-1.003043E0,-1.6692486E0,4.0776977E-1,2.9645333E-1,-1.1222136E0,-6.337751E-1,6.482887E0,1.8981411E0,-1.5250664E0,1.7002499E0,1.4330283E-1,-1.7885624E0,-1.4696684E-1,-8.1830114E-1,-3.5013077E0,-1.4852628E0,1.6762121E-1,2.755171E-1,2.979162E0,2.7537746E0,-1.6021539E-2,7.264066E0,1.6484795E0,2.7080476E0,3.0729562E-1,-1.2517956E0,6.881158E-2,2.0226934E0,2.970695E-1,2.2612832E0,-6.40615E-1,4.9135336E-1,-2.1899066E0,7.04966E-1,1.6317271E0,2.4103765E0,4.31241E0,-1.5639496E-1,2.6589062E0,3.2491875E0,6.505853E0,6.489258E-2,5.395547E0,3.9850387E-1,-1.5610197E0,8.563575E0,2.2208154E0,4.5945284E-1,3.743306E0,4.8289728E-1,3.5175736E0,9.426E0,1.9232619E0],"split_indices":[28,107,38,28,24,83,2,62,95,16,215,66,81,90,105,15,15,13,102,103,26,107,58,34,13,119,99,122,2,15,45,27,11,94,67,16,41,0,130,21,28,19,47,104,99,0,2,88,17,15,27,62,108,6,21,40,3,0,0,70,131,5,2,0,0,0,0,0,0,0,0,0,0,0,0,0,0,0,0,0,0,0,0,0,0,0,0,0,0,0,0,0,0,0,0,0,0,0,0,0,0,0,0,0,0,0,0,0,0,0,0,0,0,0,0,0,0,0,0,0,0],"split_type":[0,0,0,0,0,0,0,0,0,0,0,0,0,0,0,0,0,0,0,0,0,0,0,0,0,0,0,0,0,0,0,0,0,0,0,0,0,0,0,0,0,0,0,0,0,0,0,0,0,0,0,0,0,0,0,0,0,0,0,0,0,0,0,0,0,0,0,0,0,0,0,0,0,0,0,0,0,0,0,0,0,0,0,0,0,0,0,0,0,0,0,0,0,0,0,0,0,0,0,0,0,0,0,0,0,0,0,0,0,0,0,0,0,0,0,0,0,0,0,0,0],"sum_hessian":[2.129E3,1.139E3,9.9E2,8.17E2,3.22E2,8.14E2,1.76E2,5.44E2,2.73E2,1.5E2,1.72E2,2.2E2,5.94E2,3.5E1,1.41E2,4.81E2,6.3E1,1.88E2,8.5E1,5.3E1,9.7E1,1.61E2,1.1E1,1.49E2,7.1E1,5.53E2,4.1E1,2.5E1,1E1,4.9E1,9.2E1,7.4E1,4.07E2,3.2E1,3.1E1,1.77E2,1.1E1,8E0,7.7E1,4E1,1.3E1,1.5E1,8.2E1,1.09E2,5.2E1,7E0,4E0,5.7E1,9.2E1,1.1E1,6E1,5.12E2,4.1E1,2.1E1,2E1,2E1,5E0,1E0,9E0,9E0,4E1,7.6E1,1.6E1,1.3E1,6.1E1,1.5E2,2.57E2,2.3E1,9E0,2.5E1,6E0,1.04E2,7.3E1,5E0,6E0,3E0,7.4E1,1.7E1,2.3E1,6E0,7E0,2E0,1.3E1,7E1,1.2E1,1.06E2,3E0,3.7E1,1.5E1,6E0,1E0,1E0,3E0,4.4E1,1.3E1,4.1E1,5.1E1,3E0,8E0,2E0,5.8E1,2.65E2,2.47E2,2.5E1,1.6E1,1E0,2E1,1.4E1,6E0,2E0,1.8E1,3E0,2E0,6E0,3E0,4E0,3.6E1,6.9E1,7E0,4E0,1.2E1],"tree_param":{"num_deleted":"0","num_feature":"217","num_nodes":"121","size_leaf_vector":"1"}},{"base_weights":[3.48922E-1,-2.6047632E1,2.1662893E1,-3.4783554E1,8.487842E0,1.74781E1,7.5318016E1,-4.1927437E1,-8.154106E0,5.010776E0,8.826865E1,9.476705E0,3.640609E1,5.8632095E1,1.5575148E2,-4.370922E1,4.175219E1,8.981039E1,-1.2497679E1,-2.8611693E-1,4.8989292E1,1.3534236E0,5.2078648E0,-6.933381E0,1.8384838E1,2.329082E1,6.0476543E1,7.000288E1,2.0630701E1,1.6567738E2,6.6786426E-1,-6.416691E1,-3.8035244E1,6.416057E0,7.1123726E1,1.1179047E0,6.25319E0,-2.093425E1,8.777735E0,1.3881625E1,-1.4450453E1,1.8529568E1,6.071992E1,-1.7434517E1,1.4145082E1,2.314352E1,-1.8278631E1,3.8041866E1,1.1664668E1,1.2855591E2,4.9659874E1,4.9959156E1,8.504067E1,-8.040848E0,5.019568E1,1.15543144E2,1.2479683E1,-1.6794872E0,-3.6895573E0,-2.167826E0,-8.648128E-1,-6.3518125E-1,1.1965863E0,4.1370177E0,3.5598755E-2,7.356308E-1,-6.5178794E-1,1.7412367E0,-1.249159E0,7.973659E-1,-2.024122E0,1.1743708E0,-4.8637676E-1,1.5178397E0,-1.1922786E0,1.0745201E-1,1.5138851E0,1.5647153E0,3.2950077E0,-1.4448187E0,4.458572E-2,9.8412484E-1,-1.924693E0,2.2803493E0,4.758508E-1,-4.7558528E-1,-2.3947005E0,3.5857804E0,1.6560373E0,-9.0963537E-1,7.889862E-1,7.2928476E0,5.366369E-1,3.3005593E0,1.3674431E0,5.491926E-1,3.0551279E0,2.150656E0,4.6877675E0,5.0578547E-1,-1.8902305E0,1.5247658E0,3.3598652E0,6.080975E0,1.5213989E0],"categories":[],"categories_nodes":[],"categories_segments":[],"categories_sizes":[],"default_left":[0,0,0,0,0,0,0,0,0,0,0,0,0,0,0,0,0,0,0,0,0,0,0,0,0,0,0,0,0,0,0,0,0,0,0,0,0,0,0,0,0,0,0,0,0,0,0,0,0,0,0,0,0,0,0,0,0,0,0,0,0,0,0,0,0,0,0,0,0,0,0,0,0,0,0,0,0,0,0,0,0,0,0,0,0,0,0,0,0,0,0,0,0,0,0,0,0,0,0,0,0,0,0,0,0],"id":12,"left_children":[1,3,5,7,9,11,13,15,17,19,21,23,25,27,29,31,33,35,37,39,41,-1,-1,43,45,47,49,51,53,55,-1,57,59,61,63,65,-1,67,69,71,73,75,77,79,81,83,85,87,89,91,93,95,97,99,101,103,-1,-1,-1,-1,-1,-1,-1,-1,-1,-1,-1,-1,-1,-1,-1,-1,-1,-1,-1,-1,-1,-1,-1,-1,-1,-1,-1,-1,-1,-1,-1,-1,-1,-1,-1,-1,-1,-1,-1,-1,-1,-1,-1,-1,-1,-1,-1,-1,-1],"loss_changes":[1.1989351E6,2.8751275E5,2.63411E5,1.4423869E5,5.3096508E4,1.654931E5,1.0494697E5,9.11355E4,7.005599E4,4.334262E4,4.9597227E3,1.1283474E5,1.01190875E5,2.9667406E4,1.7574531E4,6.569625E4,1.3036059E4,2.174718E4,2.8184434E4,3.3713598E4,6.021121E3,0E0,0E0,6.045321E4,8.765794E4,3.5913812E4,7.7564625E4,1.23291875E4,1.5661742E4,2.5853188E4,0E0,3.4600844E4,5.0235375E4,2.6482773E3,5.6667266E3,7.6903503E2,0E0,2.6155625E4,1.6538457E4,1.9278383E4,3.6085305E4,1.2820164E3,7.173828E1,3.8255348E4,2.7282664E4,1.3516758E5,1.4603324E4,1.3035984E4,1.5030849E4,2.9011516E4,3.467611E4,1.0621105E4,6.9549844E3,5.786495E3,9.6524023E2,1.4712656E3,0E0,0E0,0E0,0E0,0E0,0E0,0E0,0E0,0E0,0E0,0E0,0E0,0E0,0E0,0E0,0E0,0E0,0E0,0E0,0E0,0E0,0E0,0E0,0E0,0E0,0E0,0E0,0E0,0E0,0E0,0E0,0E0,0E0,0E0,0E0,0E0,0E0,0E0,0E0,0E0,0E0,0E0,0E0,0E0,0E0,0E0,0E0,0E0,0E0],"parents":[2147483647,0,0,1,1,2,2,3,3,4,4,5,5,6,6,7,7,8,8,9,9,10,10,11,11,12,12,13,13,14,14,15,15,16,16,17,17,18,18,19,19,20,20,23,23,24,24,25,25,26,26,27,27,28,28,29,29,31,31,32,32,33,33,34,34,35,35,37,37,38,38,39,39,40,40,41,41,42,42,43,43,44,44,45,45,46,46,47,47,48,48,49,49,50,50,51,51,52,52,53,53,54,54,55,55],"right_children":[2,4,6,8,10,12,14,16,18,20,22,24,26,28,30,32,34,36,38,40,42,-1,-1,44,46,48,50,52,54,56,-1,58,60,62,64,66,-1,68,70,72,74,76,78,80,82,84,86,88,90,92,94,96,98,100,102,104,-1,-1,-1,-1,-1,-1,-1,-1,-1,-1,-1,-1,-1,-1,-1,-1,-1,-1,-1,-1,-1,-1,-1,-1,-1,-1,-1,-1,-1,-1,-1,-1,-1,-1,-1,-1,-1,-1,-1,-1,-1,-1,-1,-1,-1,-1,-1,-1,-1],"split_conditions":[-3.5746607E-1,4.828949E-1,1.9762938E0,-8.8686995E-2,2.5732908E-1,7.0101774E-1,2.8717332E0,2.1913743E0,-1.144162E0,4.4413724E0,7.5923586E-1,1.8882066E-1,-2.9670298E-1,1.7654331E0,-1.18605174E-1,-5.243155E-1,-3.850498E-1,7.8196913E-1,8.0483764E-1,6.271435E-3,-5.324465E-1,1.3534236E0,5.2078648E0,4.849347E-1,1.3164047E0,-3.827885E-2,-7.018696E-1,-2.2775352E-1,-2.793228E-1,1.881121E0,6.6786426E-1,-6.926372E-1,8.947806E-2,-1.018555E0,-6.146474E-1,-6.146474E-1,6.25319E0,-4.457708E-1,1.3507707E0,1.2213908E0,-1.164288E0,-4.1210532E-1,-9.135281E-1,-3.420324E-1,3.0909762E-1,-1.9893049E-1,-1.3715272E-1,-1.1762663E0,-5.173765E-1,2.818757E-1,2.979988E-1,-1.3496459E-1,6.9677216E-1,1.6144964E0,-4.504176E-1,2.60043E0,1.2479683E1,-1.6794872E0,-3.6895573E0,-2.167826E0,-8.648128E-1,-6.3518125E-1,1.1965863E0,4.1370177E0,3.5598755E-2,7.356308E-1,-6.5178794E-1,1.7412367E0,-1.249159E0,7.973659E-1,-2.024122E0,1.1743708E0,-4.8637676E-1,1.5178397E0,-1.1922786E0,1.0745201E-1,1.5138851E0,1.5647153E0,3.2950077E0,-1.4448187E0,4.458572E-2,9.8412484E-1,-1.924693E0,2.2803493E0,4.758508E-1,-4.7558528E-1,-2.3947005E0,3.5857804E0,1.6560373E0,-9.0963537E-1,7.889862E-1,7.2928476E0,5.366369E-1,3.3005593E0,1.3674431E0,5.491926E-1,3.0551279E0,2.150656E0,4.6877675E0,5.0578547E-1,-1.8902305E0,1.5247658E0,3.3598652E0,6.080975E0,1.5213989E0],"split_indices":[28,83,28,46,57,107,39,64,12,112,0,26,97,30,19,18,20,0,34,19,12,0,0,62,61,15,15,5,59,90,0,16,102,0,0,0,0,44,103,15,12,18,38,83,95,17,5,17,7,27,88,19,37,0,12,4,0,0,0,0,0,0,0,0,0,0,0,0,0,0,0,0,0,0,0,0,0,0,0,0,0,0,0,0,0,0,0,0,0,0,0,0,0,0,0,0,0,0,0,0,0,0,0,0,0],"split_type":[0,0,0,0,0,0,0,0,0,0,0,0,0,0,0,0,0,0,0,0,0,0,0,0,0,0,0,0,0,0,0,0,0,0,0,0,0,0,0,0,0,0,0,0,0,0,0,0,0,0,0,0,0,0,0,0,0,0,0,0,0,0,0,0,0,0,0,0,0,0,0,0,0,0,0,0,0,0,0,0,0,0,0,0,0,0,0,0,0,0,0,0,0,0,0,0,0,0,0,0,0,0,0,0,0],"sum_hessian":[2.129E3,9.51E2,1.178E3,7.59E2,1.92E2,1.094E3,8.4E1,5.98E2,1.61E2,1.85E2,7E0,7.7E2,3.24E2,7.1E1,1.3E1,5.86E2,1.2E1,6E0,1.55E2,1.66E2,1.9E1,2E0,5E0,2.71E2,4.99E2,2.11E2,1.13E2,5.4E1,1.7E1,1.2E1,1E0,1.25E2,4.61E2,6E0,6E0,2E0,4E0,1.11E2,4.4E1,8.3E1,8.3E1,6E0,1.3E1,1.81E2,9E1,4.42E2,5.7E1,9.2E1,1.19E2,1.4E1,9.9E1,2.5E1,2.9E1,9E0,8E0,9E0,3E0,3.1E1,9.4E1,3.66E2,9.5E1,3E0,3E0,5E0,1E0,1E0,1E0,7E0,1.04E2,3.9E1,5E0,5.9E1,2.4E1,1.4E1,6.9E1,3E0,3E0,3E0,1E1,1.11E2,7E1,8.2E1,8E0,1.66E2,2.76E2,4.5E1,1.2E1,1E1,8.2E1,1.4E1,1.05E2,1.2E1,2E0,5.6E1,4.3E1,6E0,1.9E1,6E0,2.3E1,6E0,3E0,5E0,3E0,8E0,1E0],"tree_param":{"num_deleted":"0","num_feature":"217","num_nodes":"105","size_leaf_vector":"1"}},{"base_weights":[3.6239022E-1,-2.0708447E1,2.4600927E1,-3.487902E1,-3.0102527E0,1.7734304E1,5.6079445E1,-4.901486E1,-1.7110603E1,2.677449E1,-8.890037E0,-7.076704E0,2.6920015E1,1.017629E2,4.41028E1,-5.0271595E1,4.8257053E1,-6.632491E1,-1.1207282E1,8.847653E0,1.08648094E2,7.6259885E0,-1.919438E1,5.2684927E0,-3.2697575E1,2.3924574E1,6.579035E1,7.077085E1,1.6576566E2,7.670829E1,2.6098742E1,-5.6213303E1,-3.1516468E1,-2.0369224E-1,3.117912E0,-1.0036682E1,-7.459862E1,-1.3102386E1,5.7263844E1,2.7633766E1,-4.334369E0,7.007E0,1.7636292E1,1.7607513E1,-1.8361565E1,-2.6553791E1,1.9987146E1,-1.7788887E1,1.9194048E1,5.100029E0,-3.9597145E1,2.0950949E1,5.967566E1,4.6116405E1,8.326829E1,9.314386E1,-3.2621613E0,-2.0254059E-1,9.157619E0,1.27672104E2,6.2407154E1,1.4156943E1,7.865285E1,-1.2705976E0,-3.0185075E0,-1.9404999E0,1.4091769E-1,-1.0330929E0,1.9670258E-1,-3.8480034E0,-1.5420388E0,-9.782351E-2,-1.0945934E0,3.3842869E0,-1.316887E-1,4.03134E0,1.036109E0,-1.3693427E0,8.933646E-1,1.980799E0,-5.1110786E-1,-4.757482E-1,1.3428415E0,1.1709534E0,-1.323057E0,-2.5165835E-1,-1.8567343E0,-2.8022283E-1,2.4209068E0,-1.1729529E0,6.511416E-2,1.8244709E0,2.5630656E-1,2.1375368E0,-6.100144E-1,4.2903802E-1,-2.0687866E0,9.8595506E-1,4.387169E0,2.4688451E0,4.5975723E0,1.1502501E0,2.7684028E0,2.9925678E0,6.0775976E0,1.6793316E-2,5.17186E0,-1.2171866E0,9.3174744E-1,7.9273453E0,2.086158E0,4.0334502E-1,3.4031875E0,3.998053E-1,3.3147323E0,8.874933E0,1.7292503E0],"categories":[],"categories_nodes":[],"categories_segments":[],"categories_sizes":[],"default_left":[0,0,0,0,0,0,0,0,0,0,0,0,0,0,0,0,0,0,0,0,0,0,0,0,0,0,0,0,0,0,0,0,0,0,0,0,0,0,0,0,0,0,0,0,0,0,0,0,0,0,0,0,0,0,0,0,0,0,0,0,0,0,0,0,0,0,0,0,0,0,0,0,0,0,0,0,0,0,0,0,0,0,0,0,0,0,0,0,0,0,0,0,0,0,0,0,0,0,0,0,0,0,0,0,0,0,0,0,0,0,0,0,0,0,0,0,0],"id":13,"left_children":[1,3,5,7,9,11,13,15,17,19,21,23,25,27,29,31,33,35,37,39,41,43,45,47,49,51,53,55,57,59,61,63,65,-1,-1,67,69,71,73,75,77,-1,79,81,83,85,87,89,91,93,95,97,99,101,103,105,107,-1,-1,109,111,113,115,-1,-1,-1,-1,-1,-1,-1,-1,-1,-1,-1,-1,-1,-1,-1,-1,-1,-1,-1,-1,-1,-1,-1,-1,-1,-1,-1,-1,-1,-1,-1,-1,-1,-1,-1,-1,-1,-1,-1,-1,-1,-1,-1,-1,-1,-1,-1,-1,-1,-1,-1,-1,-1,-1],"loss_changes":[1.0883564E6,2.8579962E5,2.1321125E5,1.5815288E5,8.920298E4,1.8593453E5,9.235475E4,4.5456188E4,8.118553E4,1.2232845E5,7.2475766E4,7.00734E4,6.770409E4,5.9677375E4,8.135644E4,3.7008688E4,3.9436758E3,1.3222625E4,3.3579543E4,1.7454502E4,4.0520453E4,4.2864152E4,7.60792E4,4.850446E4,1.8978625E4,5.7645688E4,1.0602078E4,4.3368734E4,3.321997E4,2.8474375E4,5.7252434E4,3.2139375E4,2.164568E4,0E0,0E0,8.2349207E2,3.13125E2,2.4154973E4,4.547996E3,8.950951E3,2.1985076E4,0E0,3.4665605E3,3.0108406E4,1.6186347E4,5.0136438E4,3.0830326E4,6.2008125E3,2.268407E4,8.337999E3,5.5820312E3,4.0478438E4,9.420547E3,3.4302656E3,1.1551156E4,1.9071344E4,3.6850222E3,0E0,0E0,1.9921484E4,1.20535625E4,2.4203223E4,6.791186E4,0E0,0E0,0E0,0E0,0E0,0E0,0E0,0E0,0E0,0E0,0E0,0E0,0E0,0E0,0E0,0E0,0E0,0E0,0E0,0E0,0E0,0E0,0E0,0E0,0E0,0E0,0E0,0E0,0E0,0E0,0E0,0E0,0E0,0E0,0E0,0E0,0E0,0E0,0E0,0E0,0E0,0E0,0E0,0E0,0E0,0E0,0E0,0E0,0E0,0E0,0E0,0E0,0E0,0E0],"parents":[2147483647,0,0,1,1,2,2,3,3,4,4,5,5,6,6,7,7,8,8,9,9,10,10,11,11,12,12,13,13,14,14,15,15,16,16,17,17,18,18,19,19,20,20,21,21,22,22,23,23,24,24,25,25,26,26,27,27,28,28,29,29,30,30,31,31,32,32,35,35,36,36,37,37,38,38,39,39,40,40,42,42,43,43,44,44,45,45,46,46,47,47,48,48,49,49,50,50,51,51,52,52,53,53,54,54,55,55,56,56,59,59,60,60,61,61,62,62],"right_children":[2,4,6,8,10,12,14,16,18,20,22,24,26,28,30,32,34,36,38,40,42,44,46,48,50,52,54,56,58,60,62,64,66,-1,-1,68,70,72,74,76,78,-1,80,82,84,86,88,90,92,94,96,98,100,102,104,106,108,-1,-1,110,112,114,116,-1,-1,-1,-1,-1,-1,-1,-1,-1,-1,-1,-1,-1,-1,-1,-1,-1,-1,-1,-1,-1,-1,-1,-1,-1,-1,-1,-1,-1,-1,-1,-1,-1,-1,-1,-1,-1,-1,-1,-1,-1,-1,-1,-1,-1,-1,-1,-1,-1,-1,-1,-1,-1,-1],"split_conditions":[-8.776214E-2,1.45977605E-2,7.2062933E-1,-4.5417312E-1,-1.1613926E0,-5.140599E-1,-8.3085E-1,8.228927E0,-6.619717E-1,3.1256038E-1,-4.4054423E-2,-8.314003E-2,2.2496912E0,7.138873E-1,-9.386527E-1,-5.140599E-1,1.7982617E-1,-3.154487E-1,2.4409926E0,-6.950059E-1,-7.455781E-1,1.2213908E0,1.2313663E0,-1.4141788E-1,-1.535745E0,2.6780307E0,4.913569E-1,6.5771747E-1,-9.49421E-1,-1.9940228E0,-1.4162583E-2,-7.649614E-1,-2.7492714E-1,-2.0369224E-1,3.117912E0,8.8690266E-2,1.7144694E0,-1.9501947E-1,-7.170299E-1,-1.5429202E0,-5.1372445E-1,7.007E0,8.866344E-1,-1.377077E-2,-9.7699946E-1,-1.360026E-1,2.90662E-1,2.979988E-1,-6.166816E-2,-1.2767776E0,-1.5470804E0,1.4556786E1,2.8501195E-1,-7.399946E-2,1.1188586E-1,4.792586E-1,1.1639642E0,-2.0254059E-1,9.157619E0,1.0151621E0,3.2334885E-1,4.4817114E0,2.7243942E-1,-1.2705976E0,-3.0185075E0,-1.9404999E0,1.4091769E-1,-1.0330929E0,1.9670258E-1,-3.8480034E0,-1.5420388E0,-9.782351E-2,-1.0945934E0,3.3842869E0,-1.316887E-1,4.03134E0,1.036109E0,-1.3693427E0,8.933646E-1,1.980799E0,-5.1110786E-1,-4.757482E-1,1.3428415E0,1.1709534E0,-1.323057E0,-2.5165835E-1,-1.8567343E0,-2.8022283E-1,2.4209068E0,-1.1729529E0,6.511416E-2,1.8244709E0,2.5630656E-1,2.1375368E0,-6.100144E-1,4.2903802E-1,-2.0687866E0,9.8595506E-1,4.387169E0,2.4688451E0,4.5975723E0,1.1502501E0,2.7684028E0,2.9925678E0,6.0775976E0,1.6793316E-2,5.17186E0,-1.2171866E0,9.3174744E-1,7.9273453E0,2.086158E0,4.0334502E-1,3.4031875E0,3.998053E-1,3.3147323E0,8.874933E0,1.7292503E0],"split_indices":[28,83,38,7,12,83,2,117,34,215,45,66,81,90,105,83,2,95,93,3,58,15,71,34,13,119,99,122,2,15,45,15,90,0,0,2,23,103,14,130,28,0,0,120,23,15,0,88,17,15,27,136,11,11,21,40,20,0,0,70,131,5,2,0,0,0,0,0,0,0,0,0,0,0,0,0,0,0,0,0,0,0,0,0,0,0,0,0,0,0,0,0,0,0,0,0,0,0,0,0,0,0,0,0,0,0,0,0,0,0,0,0,0,0,0,0,0],"split_type":[0,0,0,0,0,0,0,0,0,0,0,0,0,0,0,0,0,0,0,0,0,0,0,0,0,0,0,0,0,0,0,0,0,0,0,0,0,0,0,0,0,0,0,0,0,0,0,0,0,0,0,0,0,0,0,0,0,0,0,0,0,0,0,0,0,0,0,0,0,0,0,0,0,0,0,0,0,0,0,0,0,0,0,0,0,0,0,0,0,0,0,0,0,0,0,0,0,0,0,0,0,0,0,0,0,0,0,0,0,0,0,0,0,0,0,0,0],"sum_hessian":[2.129E3,1.139E3,9.9E2,6.32E2,5.07E2,8.14E2,1.76E2,3.51E2,2.81E2,8.3E1,4.24E2,2.2E2,5.94E2,3.5E1,1.41E2,3.47E2,4E0,2.9E1,2.52E2,6.9E1,1.4E1,1.63E2,2.61E2,1.49E2,7.1E1,5.53E2,4.1E1,2.5E1,1E1,4.9E1,9.2E1,2.62E2,8.5E1,1E0,3E0,4E0,2.5E1,2.46E2,6E0,2.8E1,4.1E1,1E1,4E0,1.18E2,4.5E1,2.2E2,4.1E1,5.6E1,9.3E1,1.1E1,6E1,5.12E2,4.1E1,2.1E1,2E1,1.9E1,6E0,1E0,9E0,9E0,4E1,7.6E1,1.6E1,3.2E1,2.3E2,7E1,1.5E1,2E0,2E0,2.3E1,2E0,1.09E2,1.37E2,5E0,1E0,2E0,2.6E1,2E1,2.1E1,2E0,2E0,3E1,8.8E1,7E0,3.8E1,7.3E1,1.47E2,2.2E1,1.9E1,4.3E1,1.3E1,4.1E1,5.2E1,3E0,8E0,2E0,5.8E1,5.04E2,8E0,3.3E1,8E0,7E0,1.4E1,1.4E1,6E0,2E0,1.7E1,3E0,3E0,6E0,3E0,4E0,3.6E1,6.9E1,7E0,4E0,1.2E1],"tree_param":{"num_deleted":"0","num_feature":"217","num_nodes":"117","size_leaf_vector":"1"}},{"base_weights":[3.7936717E-1,-2.7027147E1,1.7284616E1,-3.7798008E1,-1.7549492E0,9.523508E0,4.1864067E1,-2.2082293E1,-4.7396385E1,-1.6961498E1,1.9943052E1,8.158391E-1,2.836466E1,3.597756E1,1.0112609E2,-2.5371466E1,4.8869648E1,-6.81078E1,-3.8708447E1,4.723229E0,-2.7517225E1,7.4329042E0,5.074642E1,-7.266507E-2,7.627305E0,1.7812069E1,5.1764713E1,2.7113392E1,6.610771E1,1.022229E1,7.5387566E1,-4.019833E1,-1.4677899E1,3.819112E0,2.616679E1,-7.117786E1,-3.243851E1,-3.991027E1,4.5481655E1,-1.5672507E1,1.3582429E1,-5.828061E1,-2.1179037E1,3.498289E1,-5.1373434E0,3.5436253E1,1.0352935E2,-1.112209E1,9.902712E0,2.800853E1,6.7820816E0,4.2518612E1,1.5046857E2,2.2268877E1,7.0802826E1,5.7032078E1,6.657918E0,3.4974636E1,8.997085E1,-2.7226987E0,-9.2451155E-1,-1.0015159E0,1.6076297E0,2.6265058E-1,1.6740849E0,-2.349959E0,-3.741082E0,-1.0570679E-1,-2.2566326E0,-2.200761E0,-5.916051E-1,1.0575969E0,2.9617703E0,-1.1443162E0,-5.186984E-2,9.68342E-1,-8.319648E-1,-6.568728E-1,-3.189562E0,-1.9687277E0,-7.134761E-1,1.1454175E0,3.6934793E0,-4.432922E-1,2.8736975E0,-2.6507068E-1,2.4654999E0,2.845364E0,6.5591164E0,-8.230753E-1,8.6132044E-1,2.955129E-1,2.946204E0,2.22258E0,8.5189337E-1,-1.676594E0,6.113669E-1,2.904063E0,4.469258E-1,8.465976E0,4.628006E-1,9.785876E-1,4.2950983E0,4.2606134E0,1.3876138E0,2.4003973E0,4.130454E0,6.749842E-1,1.9941504E0,1.5959834E0,5.26887E0],"categories":[],"categories_nodes":[],"categories_segments":[],"categories_sizes":[],"default_left":[0,0,0,0,0,0,0,0,0,0,0,0,0,0,0,0,0,0,0,0,0,0,0,0,0,0,0,0,0,0,0,0,0,0,0,0,0,0,0,0,0,0,0,0,0,0,0,0,0,0,0,0,0,0,0,0,0,0,0,0,0,0,0,0,0,0,0,0,0,0,0,0,0,0,0,0,0,0,0,0,0,0,0,0,0,0,0,0,0,0,0,0,0,0,0,0,0,0,0,0,0,0,0,0,0,0,0,0,0,0,0],"id":14,"left_children":[1,3,5,7,9,11,13,15,17,19,21,23,25,27,29,31,33,35,37,39,41,43,45,47,-1,49,51,53,55,-1,57,59,61,-1,63,65,67,69,71,73,75,77,79,81,83,85,87,89,91,93,95,97,99,101,103,105,-1,107,109,-1,-1,-1,-1,-1,-1,-1,-1,-1,-1,-1,-1,-1,-1,-1,-1,-1,-1,-1,-1,-1,-1,-1,-1,-1,-1,-1,-1,-1,-1,-1,-1,-1,-1,-1,-1,-1,-1,-1,-1,-1,-1,-1,-1,-1,-1,-1,-1,-1,-1,-1,-1],"loss_changes":[9.873258E5,2.2123494E5,2.5102797E5,8.493525E4,8.0846484E4,1.6453158E5,1.06597125E5,5.2115242E4,6.0882312E4,3.309129E4,3.854363E4,9.262759E4,7.735514E4,7.539331E4,5.9047656E4,3.2547344E4,4.247467E3,8.970281E3,2.721175E4,8.885987E3,1.7679125E4,2.5460363E4,1.9766664E4,7.550211E4,0E0,2.455275E4,8.303966E4,4.604547E4,3.1959938E4,0E0,1.0997781E4,2.5916406E4,3.147476E4,0E0,8.949966E2,4.765E3,3.754002E3,2.8063594E4,8.5555664E1,1.5598823E3,6.265956E3,3.1422188E3,9.747363E3,9.107168E3,1.2415314E4,1.382583E4,2.7019922E2,4.9477E4,7.010933E4,1.9807258E4,2.3898633E4,4.7037E4,1.9728672E4,3.333053E4,1.1282523E4,9.651906E3,0E0,3.0484766E2,1.1840656E4,0E0,0E0,0E0,0E0,0E0,0E0,0E0,0E0,0E0,0E0,0E0,0E0,0E0,0E0,0E0,0E0,0E0,0E0,0E0,0E0,0E0,0E0,0E0,0E0,0E0,0E0,0E0,0E0,0E0,0E0,0E0,0E0,0E0,0E0,0E0,0E0,0E0,0E0,0E0,0E0,0E0,0E0,0E0,0E0,0E0,0E0,0E0,0E0,0E0,0E0,0E0,0E0],"parents":[2147483647,0,0,1,1,2,2,3,3,4,4,5,5,6,6,7,7,8,8,9,9,10,10,11,11,12,12,13,13,14,14,15,15,16,16,17,17,18,18,19,19,20,20,21,21,22,22,23,23,25,25,26,26,27,27,28,28,30,30,31,31,32,32,34,34,35,35,36,36,37,37,38,38,39,39,40,40,41,41,42,42,43,43,44,44,45,45,46,46,47,47,48,48,49,49,50,50,51,51,52,52,53,53,54,54,55,55,57,57,58,58],"right_children":[2,4,6,8,10,12,14,16,18,20,22,24,26,28,30,32,34,36,38,40,42,44,46,48,-1,50,52,54,56,-1,58,60,62,-1,64,66,68,70,72,74,76,78,80,82,84,86,88,90,92,94,96,98,100,102,104,106,-1,108,110,-1,-1,-1,-1,-1,-1,-1,-1,-1,-1,-1,-1,-1,-1,-1,-1,-1,-1,-1,-1,-1,-1,-1,-1,-1,-1,-1,-1,-1,-1,-1,-1,-1,-1,-1,-1,-1,-1,-1,-1,-1,-1,-1,-1,-1,-1,-1,-1,-1,-1,-1,-1],"split_conditions":[-5.4293066E-1,7.0101774E-1,9.646918E-1,-3.827885E-2,-7.831387E-1,1.0387186E0,2.9888475E0,2.471872E0,-9.04275E-1,-3.9400125E-1,1.2313663E0,4.737657E0,-4.5392886E-2,7.0101774E-1,-2.3107107E0,-7.522558E-1,1.2150284E-1,3.6060786E-1,1.2621928E0,-1.0917133E0,-1.3356773E0,5.472424E-1,1.5064257E-1,-6.71697E-3,7.627305E0,-3.6475825E-1,9.748378E-1,1.3120741E0,3.1025956E0,1.022229E1,1.1326768E0,-7.384384E-1,1.5349827E0,3.819112E0,-1.0669168E0,-1.4180615E0,-4.0955347E-1,6.044208E-1,-8.928361E-1,6.738718E-1,-2.5720736E-1,-1.4306673E-1,-1.0875312E0,3.0745804E-1,1.155068E0,6.779275E-1,-3.270969E-2,1.329929E0,1.4287269E0,4.079174E-1,-5.173765E-1,4.1248867E-1,9.762797E-1,4.2098703E0,4.84627E-1,1.2507197E0,6.657918E0,-5.3237176E-1,-1.6033827E0,-2.7226987E0,-9.2451155E-1,-1.0015159E0,1.6076297E0,2.6265058E-1,1.6740849E0,-2.349959E0,-3.741082E0,-1.0570679E-1,-2.2566326E0,-2.200761E0,-5.916051E-1,1.0575969E0,2.9617703E0,-1.1443162E0,-5.186984E-2,9.68342E-1,-8.319648E-1,-6.568728E-1,-3.189562E0,-1.9687277E0,-7.134761E-1,1.1454175E0,3.6934793E0,-4.432922E-1,2.8736975E0,-2.6507068E-1,2.4654999E0,2.845364E0,6.5591164E0,-8.230753E-1,8.6132044E-1,2.955129E-1,2.946204E0,2.22258E0,8.5189337E-1,-1.676594E0,6.113669E-1,2.904063E0,4.469258E-1,8.465976E0,4.628006E-1,9.785876E-1,4.2950983E0,4.2606134E0,1.3876138E0,2.4003973E0,4.130454E0,6.749842E-1,1.9941504E0,1.5959834E0,5.26887E0],"split_indices":[28,107,28,15,24,119,28,59,11,16,71,77,97,107,16,24,19,38,98,14,26,15,98,59,0,122,105,74,168,0,38,14,93,0,3,0,4,75,4,2,92,19,7,102,91,0,2,38,35,68,7,20,0,64,89,142,0,18,17,0,0,0,0,0,0,0,0,0,0,0,0,0,0,0,0,0,0,0,0,0,0,0,0,0,0,0,0,0,0,0,0,0,0,0,0,0,0,0,0,0,0,0,0,0,0,0,0,0,0,0,0],"split_type":[0,0,0,0,0,0,0,0,0,0,0,0,0,0,0,0,0,0,0,0,0,0,0,0,0,0,0,0,0,0,0,0,0,0,0,0,0,0,0,0,0,0,0,0,0,0,0,0,0,0,0,0,0,0,0,0,0,0,0,0,0,0,0,0,0,0,0,0,0,0,0,0,0,0,0,0,0,0,0,0,0,0,0,0,0,0,0,0,0,0,0,0,0,0,0,0,0,0,0,0,0,0,0,0,0,0,0,0,0,0,0],"sum_hessian":[2.129E3,8.12E2,1.317E3,5.69E2,2.43E2,1.002E3,3.15E2,2.17E2,3.52E2,1.43E2,1E2,6.86E2,3.16E2,2.88E2,2.7E1,2.08E2,9E0,1.02E2,2.5E2,4.7E1,9.6E1,7.2E1,2.8E1,6.83E2,3E0,2.19E2,9.7E1,2.24E2,6.4E1,4E0,2.3E1,8.6E1,1.22E2,3E0,6E0,9.3E1,9E0,2.47E2,3E0,1.4E1,3.3E1,1.5E1,8.1E1,2.2E1,5E1,2.3E1,5E0,3.24E2,3.59E2,1.13E2,1.06E2,9E1,7E0,2.03E2,2.1E1,5.8E1,6E0,7E0,1.6E1,5.1E1,3.5E1,1.1E2,1.2E1,2E0,4E0,1.4E1,7.9E1,3E0,6E0,2.15E2,3.2E1,2E0,1E0,9E0,5E0,2.8E1,5E0,2E0,1.3E1,2.1E1,6E1,1.8E1,4E0,4.8E1,2E0,6E0,1.7E1,3E0,2E0,2.73E2,5.1E1,3.33E2,2.6E1,4.4E1,6.9E1,1.2E1,9.4E1,6.1E1,2.9E1,6E0,1E0,1.96E2,7E0,1.5E1,6E0,4.5E1,1.3E1,2E0,5E0,4E0,1.2E1],"tree_param":{"num_deleted":"0","num_feature":"217","num_nodes":"111","size_leaf_vector":"1"}},{"base_weights":[3.9600766E-1,-1.8802105E1,2.2480217E1,-3.1673069E1,-2.727061E0,1.6192394E1,5.130562E1,-3.9560356E1,-4.8554354E0,2.47574E1,-8.152867E0,-6.6029863E0,2.4632036E1,9.360533E1,4.022044E1,-6.2964127E1,-3.4195606E1,-1.4110299E1,1.896447E1,8.102628E0,1.00829185E2,6.4543653E0,-1.8403748E1,4.872374E0,-3.0418278E1,3.833134E1,1.7004732E1,6.590652E1,1.5903159E2,7.068696E1,2.3408113E1,-2.9840027E1,-7.083071E1,-1.3857668E1,-4.0928726E1,-2.1078886E1,1.4767809E1,4.671783E1,5.8693595E0,3.1401436E0,5.2316387E1,6.5202036E0,1.5598608E1,1.5038453E1,-1.6749836E1,-2.520521E1,1.688188E1,-1.8378536E1,1.7035757E1,5.726818E0,-3.703013E1,4.4349087E1,-2.7977388E0,6.0474863E0,2.9006693E1,8.558895E1,-2.5560062E0,-2.711319E-1,8.895339E0,1.1822329E2,5.7368656E1,1.2099992E1,7.3250305E1,-3.3225887E-2,-2.0106192E0,-3.697364E0,3.1891253E-2,-1.2454348E0,3.3937418E-1,1.2951959E0,-2.1306913E0,-3.3805656E0,-8.973141E-1,3.4461004E-1,1.9295658E0,2.7787607E0,-6.659241E-2,-8.1762865E-2,3.5727232E0,-4.306093E-1,1.15431E0,2.804235E0,7.4266356E-1,1.8472809E0,-5.4739684E-1,6.5746486E-1,6.4212623E0,1.1035414E0,-1.1958034E0,-2.642363E-1,-1.8349193E0,-2.470064E-1,2.1204736E0,9.9083483E-1,-1.0560721E0,3.607913E-1,2.024511E0,2.0882447E0,-5.4632086E-1,4.12145E-1,-1.9352258E0,1.7242597E0,3.1917474E0,1.2370838E0,-8.572459E-1,-4.1845933E-1,8.0865717E-1,1.2199217E0,3.0001676E0,2.7892813E-1,4.6858745E0,2.058577E0,-8.3529276E-1,7.3225136E0,1.9635133E0,3.809186E-1,3.1270583E0,3.1542125E-1,3.0631855E0,8.269714E0,1.6087834E0],"categories":[],"categories_nodes":[],"categories_segments":[],"categories_sizes":[],"default_left":[0,0,0,0,0,0,0,0,0,0,0,0,0,0,0,0,0,0,0,0,0,0,0,0,0,0,0,0,0,0,0,0,0,0,0,0,0,0,0,0,0,0,0,0,0,0,0,0,0,0,0,0,0,0,0,0,0,0,0,0,0,0,0,0,0,0,0,0,0,0,0,0,0,0,0,0,0,0,0,0,0,0,0,0,0,0,0,0,0,0,0,0,0,0,0,0,0,0,0,0,0,0,0,0,0,0,0,0,0,0,0,0,0,0,0,0,0,0,0,0,0],"id":15,"left_children":[1,3,5,7,9,11,13,15,17,19,21,23,25,27,29,31,33,35,37,39,41,43,45,47,49,51,53,55,57,59,61,63,65,67,69,71,73,75,77,79,81,-1,83,85,87,89,91,93,95,97,99,101,103,105,107,109,111,-1,-1,113,115,117,119,-1,-1,-1,-1,-1,-1,-1,-1,-1,-1,-1,-1,-1,-1,-1,-1,-1,-1,-1,-1,-1,-1,-1,-1,-1,-1,-1,-1,-1,-1,-1,-1,-1,-1,-1,-1,-1,-1,-1,-1,-1,-1,-1,-1,-1,-1,-1,-1,-1,-1,-1,-1,-1,-1,-1,-1,-1,-1],"loss_changes":[9.0348975E5,2.3578112E5,1.7878706E5,1.3369906E5,7.595754E4,1.5695631E5,7.923041E4,5.92435E4,3.2232838E4,1.056075E5,6.3757004E4,6.054509E4,6.151897E4,5.475903E4,7.107961E4,2.1338031E4,5.4207938E4,2.144145E4,1.46265625E4,1.5194424E4,3.5776156E4,3.530879E4,6.042397E4,4.273456E4,1.7419055E4,5.2595E4,5.032382E4,3.660153E4,3.2005797E4,2.4872844E4,5.153047E4,5.723037E3,1.6084219E4,2.3212227E4,3.488972E4,1.1176883E4,3.6741377E3,5.606746E3,1.4390387E4,1.52012295E4,1.5516797E2,0E0,3.2379248E3,2.5943797E4,1.3881343E4,4.788547E4,